<?xml version="1.0"?>
<opencv_storage>
<cascade>
  <stageType>BOOST</stageType>
  <featureType>HAAR</featureType>
  <height>20</height>
  <width>20</width>
  <stageParams>
    <boostType>GAB</boostType>
    <minHitRate>9.9500000476837158e-01</minHitRate>
    <maxFalseAlarm>5.0000000000000000e-01</maxFalseAlarm>
    <weightTrimRate>9.4999999999999996e-01</weightTrimRate>
    <maxDepth>1</maxDepth>
    <maxWeakCount>100</maxWeakCount></stageParams>
  <featureParams>
    <maxCatCount>0</maxCatCount>
    <featSize>1</featSize>
    <mode>BASIC</mode></featureParams>
  <stageNum>13</stageNum>
  <stages>
    <!-- stage 0 -->
    <_>
      <maxWeakCount>5</maxWeakCount>
      <stageThreshold>-1.1041904687881470e+00</stageThreshold>
      <weakClassifiers>
        <_>
          <internalNodes>
            0 -1 5 9.8817966878414154e-02</internalNodes>
          <leafValues>
            -5.8378970623016357e-01 8.0190265178680420e-01</leafValues></_>
        <_>
          <internalNodes>
            0 -1 79 5.8220280334353447e-03</internalNodes>
          <leafValues>
            -6.2855207920074463e-01 6.8369537591934204e-01</leafValues></_>
        <_>
          <internalNodes>
            0 -1 42 5.9262298047542572e-02</internalNodes>
          <leafValues>
            -5.5627655982971191e-01 5.2927291393280029e-01</leafValues></_>
        <_>
          <internalNodes>
            0 -1 144 -1.5788350719958544e-04</internalNodes>
          <leafValues>
            -8.3459681272506714e-01 2.9440593719482422e-01</leafValues></_>
        <_>
          <internalNodes>
            0 -1 144 1.1726079537766054e-04</internalNodes>
          <leafValues>
            3.7002190947532654e-01 -8.7947785854339600e-01</leafValues></_></weakClassifiers></_>
    <!-- stage 1 -->
    <_>
      <maxWeakCount>6</maxWeakCount>
      <stageThreshold>-9.0483820438385010e-01</stageThreshold>
      <weakClassifiers>
        <_>
          <internalNodes>
            0 -1 39 4.0549535304307938e-02</internalNodes>
          <leafValues>
            -7.2754490375518799e-01 6.8208658695220947e-01</leafValues></_>
        <_>
          <internalNodes>
            0 -1 4 2.2949317097663879e-01</internalNodes>
          <leafValues>
            -3.5676911473274231e-01 7.5692003965377808e-01</leafValues></_>
        <_>
          <internalNodes>
            0 -1 83 1.1647595092654228e-03</internalNodes>
          <leafValues>
            -4.8234668374061584e-01 4.3979516625404358e-01</leafValues></_>
        <_>
          <internalNodes>
            0 -1 144 -2.1842616843059659e-04</internalNodes>
          <leafValues>
            -8.7215685844421387e-01 2.5147670507431030e-01</leafValues></_>
        <_>
          <internalNodes>
            0 -1 151 2.0998262334614992e-04</internalNodes>
          <leafValues>
            2.1098804473876953e-01 -8.7333071231842041e-01</leafValues></_>
        <_>
          <internalNodes>
            0 -1 89 5.7057884987443686e-04</internalNodes>
          <leafValues>
            -6.6459214687347412e-01 1.9935774803161621e-01</leafValues></_></weakClassifiers></_>
    <!-- stage 2 -->
    <_>
      <maxWeakCount>7</maxWeakCount>
      <stageThreshold>-7.3920601606369019e-01</stageThreshold>
      <weakClassifiers>
        <_>
          <internalNodes>
            0 -1 23 3.7949860095977783e-02</internalNodes>
          <leafValues>
            -5.4277288913726807e-01 6.2710189819335938e-01</leafValues></_>
        <_>
          <internalNodes>
            0 -1 142 -1.3507655239664018e-04</internalNodes>
          <leafValues>
            -7.6068675518035889e-01 3.1522992253303528e-01</leafValues></_>
        <_>
          <internalNodes>
            0 -1 38 -1.9352495670318604e-02</internalNodes>
          <leafValues>
            5.1452004909515381e-01 -4.0404158830642700e-01</leafValues></_>
        <_>
          <internalNodes>
            0 -1 107 1.2767642328981310e-04</internalNodes>
          <leafValues>
            2.8352603316307068e-01 -7.4043816328048706e-01</leafValues></_>
        <_>
          <internalNodes>
            0 -1 107 -1.4424836263060570e-04</internalNodes>
          <leafValues>
            -7.8046327829360962e-01 2.4048113822937012e-01</leafValues></_>
        <_>
          <internalNodes>
            0 -1 79 7.2550103068351746e-03</internalNodes>
          <leafValues>
            -5.8655744791030884e-01 3.4130504727363586e-01</leafValues></_>
        <_>
          <internalNodes>
            0 -1 101 -4.3264593114145100e-04</internalNodes>
          <leafValues>
            -8.6753112077713013e-01 1.8898007273674011e-01</leafValues></_></weakClassifiers></_>
    <!-- stage 3 -->
    <_>
      <maxWeakCount>9</maxWeakCount>
      <stageThreshold>-1.1898677349090576e+00</stageThreshold>
      <weakClassifiers>
        <_>
          <internalNodes>
            0 -1 50 2.1361537277698517e-02</internalNodes>
          <leafValues>
            -4.0941512584686279e-01 5.9379690885543823e-01</leafValues></_>
        <_>
          <internalNodes>
            0 -1 2 3.1831943988800049e-01</internalNodes>
          <leafValues>
            -2.6938942074775696e-01 6.1798089742660522e-01</leafValues></_>
        <_>
          <internalNodes>
            0 -1 144 -3.2746524084359407e-04</internalNodes>
          <leafValues>
            -9.1399455070495605e-01 2.1569910645484924e-01</leafValues></_>
        <_>
          <internalNodes>
            0 -1 144 1.8318265210837126e-04</internalNodes>
          <leafValues>
            1.9130784273147583e-01 -9.2893880605697632e-01</leafValues></_>
        <_>
          <internalNodes>
            0 -1 85 1.6693635843694210e-03</internalNodes>
          <leafValues>
            -6.2751078605651855e-01 2.5816676020622253e-01</leafValues></_>
        <_>
          <internalNodes>
            0 -1 145 -2.6613654335960746e-04</internalNodes>
          <leafValues>
            -8.5898351669311523e-01 1.5081787109375000e-01</leafValues></_>
        <_>
          <internalNodes>
            0 -1 82 6.3819615170359612e-03</internalNodes>
          <leafValues>
            -8.0512398481369019e-01 1.3891287147998810e-01</leafValues></_>
        <_>
          <internalNodes>
            0 -1 101 4.7709181671962142e-04</internalNodes>
          <leafValues>
            1.9119833409786224e-01 -7.0935815572738647e-01</leafValues></_>
        <_>
          <internalNodes>
            0 -1 147 2.9417697805911303e-04</internalNodes>
          <leafValues>
            1.2906806170940399e-01 -7.9329180717468262e-01</leafValues></_></weakClassifiers></_>
    <!-- stage 4 -->
    <_>
      <maxWeakCount>13</maxWeakCount>
      <stageThreshold>-1.0167307853698730e+00</stageThreshold>
      <weakClassifiers>
        <_>
          <internalNodes>
            0 -1 49 4.0817251428961754e-03</internalNodes>
          <leafValues>
            -4.2363113164901733e-01 5.9521436691284180e-01</leafValues></_>
        <_>
          <internalNodes>
            0 -1 148 8.1558938836678863e-04</internalNodes>
          <leafValues>
            -4.3716400861740112e-01 3.9603579044342041e-01</leafValues></_>
        <_>
          <internalNodes>
            0 -1 109 1.9174690532963723e-04</internalNodes>
          <leafValues>
            2.0052073895931244e-01 -7.1866130828857422e-01</leafValues></_>
        <_>
          <internalNodes>
            0 -1 169 2.0568328909575939e-04</internalNodes>
          <leafValues>
            2.0369987189769745e-01 -6.7664903402328491e-01</leafValues></_>
        <_>
          <internalNodes>
            0 -1 81 1.5119588933885098e-03</internalNodes>
          <leafValues>
            -5.8276551961898804e-01 1.9142636656761169e-01</leafValues></_>
        <_>
          <internalNodes>
            0 -1 96 -4.6780268894508481e-04</internalNodes>
          <leafValues>
            -7.6633459329605103e-01 1.3682471215724945e-01</leafValues></_>
        <_>
          <internalNodes>
            0 -1 111 -1.8295318295713514e-04</internalNodes>
          <leafValues>
            -8.3522033691406250e-01 1.2345755100250244e-01</leafValues></_>
        <_>
          <internalNodes>
            0 -1 135 1.7734433058649302e-03</internalNodes>
          <leafValues>
            -3.3786129951477051e-01 3.8475790619850159e-01</leafValues></_>
        <_>
          <internalNodes>
            0 -1 9 5.7918843813240528e-03</internalNodes>
          <leafValues>
            -2.8478679060935974e-01 3.9111927151679993e-01</leafValues></_>
        <_>
          <internalNodes>
            0 -1 143 1.4278876187745482e-04</internalNodes>
          <leafValues>
            1.2231299281120300e-01 -8.0170333385467529e-01</leafValues></_>
        <_>
          <internalNodes>
            0 -1 143 -1.6513117589056492e-04</internalNodes>
          <leafValues>
            -6.0276705026626587e-01 2.0084579288959503e-01</leafValues></_>
        <_>
          <internalNodes>
            0 -1 83 1.0554476175457239e-03</internalNodes>
          <leafValues>
            -4.8546704649925232e-01 1.8688306212425232e-01</leafValues></_>
        <_>
          <internalNodes>
            0 -1 122 -3.9666359953116626e-05</internalNodes>
          <leafValues>
            2.0474606752395630e-01 -5.1220148801803589e-01</leafValues></_></weakClassifiers></_>
    <!-- stage 5 -->
    <_>
      <maxWeakCount>17</maxWeakCount>
      <stageThreshold>-1.1337287425994873e+00</stageThreshold>
      <weakClassifiers>
        <_>
          <internalNodes>
            0 -1 115 5.2268762374296784e-04</internalNodes>
          <leafValues>
            -3.9601138234138489e-01 5.8958959579467773e-01</leafValues></_>
        <_>
          <internalNodes>
            0 -1 52 1.3056650059297681e-03</internalNodes>
          <leafValues>
            -3.2535794377326965e-01 4.1831964254379272e-01</leafValues></_>
        <_>
          <internalNodes>
            0 -1 103 4.8522558063268661e-04</internalNodes>
          <leafValues>
            2.2486296296119690e-01 -5.5882233381271362e-01</leafValues></_>
        <_>
          <internalNodes>
            0 -1 116 -9.7274139989167452e-05</internalNodes>
          <leafValues>
            -7.2041249275207520e-01 1.6821767389774323e-01</leafValues></_>
        <_>
          <internalNodes>
            0 -1 1 -3.8639843463897705e-02</internalNodes>
          <leafValues>
            3.5353767871856689e-01 -3.1400927901268005e-01</leafValues></_>
        <_>
          <internalNodes>
            0 -1 151 1.8514644762035459e-04</internalNodes>
          <leafValues>
            1.3350734114646912e-01 -7.9019755125045776e-01</leafValues></_>
        <_>
          <internalNodes>
            0 -1 128 1.7934453207999468e-03</internalNodes>
          <leafValues>
            -3.0800420045852661e-01 3.5940375924110413e-01</leafValues></_>
        <_>
          <internalNodes>
            0 -1 171 -4.7303896280936897e-04</internalNodes>
          <leafValues>
            4.0121403336524963e-01 -2.8243458271026611e-01</leafValues></_>
        <_>
          <internalNodes>
            0 -1 114 -2.3768175742588937e-04</internalNodes>
          <leafValues>
            -5.0983726978302002e-01 2.1439701318740845e-01</leafValues></_>
        <_>
          <internalNodes>
            0 -1 86 3.6793122999370098e-03</internalNodes>
          <leafValues>
            -7.5251674652099609e-01 8.6828947067260742e-02</leafValues></_>
        <_>
          <internalNodes>
            0 -1 143 2.5485461810603738e-04</internalNodes>
          <leafValues>
            6.9076716899871826e-02 -9.7712254524230957e-01</leafValues></_>
        <_>
          <internalNodes>
            0 -1 163 2.6668031932786107e-04</internalNodes>
          <leafValues>
            -2.8558117151260376e-01 3.6232727766036987e-01</leafValues></_>
        <_>
          <internalNodes>
            0 -1 137 3.0182581394910812e-03</internalNodes>
          <leafValues>
            9.4462059438228607e-02 -9.2705857753753662e-01</leafValues></_>
        <_>
          <internalNodes>
            0 -1 160 -4.6182522783055902e-04</internalNodes>
          <leafValues>
            3.5855212807655334e-01 -2.3863321542739868e-01</leafValues></_>
        <_>
          <internalNodes>
            0 -1 43 1.1991861974820495e-03</internalNodes>
          <leafValues>
            -2.1520508825778961e-01 4.3432593345642090e-01</leafValues></_>
        <_>
          <internalNodes>
            0 -1 172 1.3302874867804348e-04</internalNodes>
          <leafValues>
            1.1335313320159912e-01 -8.2183247804641724e-01</leafValues></_>
        <_>
          <internalNodes>
            0 -1 125 -3.2706692581996322e-04</internalNodes>
          <leafValues>
            3.6097732186317444e-01 -2.7940249443054199e-01</leafValues></_></weakClassifiers></_>
    <!-- stage 6 -->
    <_>
      <maxWeakCount>16</maxWeakCount>
      <stageThreshold>-8.8217759132385254e-01</stageThreshold>
      <weakClassifiers>
        <_>
          <internalNodes>
            0 -1 33 4.6404618769884109e-03</internalNodes>
          <leafValues>
            -2.8571429848670959e-01 5.8663880825042725e-01</leafValues></_>
        <_>
          <internalNodes>
            0 -1 188 -3.1816709088161588e-04</internalNodes>
          <leafValues>
            3.2168725132942200e-01 -4.1293057799339294e-01</leafValues></_>
        <_>
          <internalNodes>
            0 -1 177 -1.2138879392296076e-03</internalNodes>
          <leafValues>
            4.2013865709304810e-01 -2.6889270544052124e-01</leafValues></_>
        <_>
          <internalNodes>
            0 -1 144 -2.1497241687029600e-04</internalNodes>
          <leafValues>
            -7.9099631309509277e-01 1.4086118340492249e-01</leafValues></_>
        <_>
          <internalNodes>
            0 -1 140 3.6961803562007844e-04</internalNodes>
          <leafValues>
            -4.5507529377937317e-01 2.0256334543228149e-01</leafValues></_>
        <_>
          <internalNodes>
            0 -1 95 1.2164987623691559e-02</internalNodes>
          <leafValues>
            1.3854449987411499e-01 -7.8897708654403687e-01</leafValues></_>
        <_>
          <internalNodes>
            0 -1 147 -1.6187241999432445e-04</internalNodes>
          <leafValues>
            -4.9411791563034058e-01 1.6473627090454102e-01</leafValues></_>
        <_>
          <internalNodes>
            0 -1 143 1.2053002137690783e-04</internalNodes>
          <leafValues>
            7.6353244483470917e-02 -7.9073220491409302e-01</leafValues></_>
        <_>
          <internalNodes>
            0 -1 80 5.8524752967059612e-03</internalNodes>
          <leafValues>
            -6.7137163877487183e-01 1.2204404175281525e-01</leafValues></_>
        <_>
          <internalNodes>
            0 -1 46 7.7117666602134705e-02</internalNodes>
          <leafValues>
            -3.0114415287971497e-01 3.0322757363319397e-01</leafValues></_>
        <_>
          <internalNodes>
            0 -1 168 1.5267419803421944e-04</internalNodes>
          <leafValues>
            8.0287791788578033e-02 -8.1181162595748901e-01</leafValues></_>
        <_>
          <internalNodes>
            0 -1 78 3.3902656286954880e-03</internalNodes>
          <leafValues>
            -3.8528954982757568e-01 1.9736261665821075e-01</leafValues></_>
        <_>
          <internalNodes>
            0 -1 15 1.3737969566136599e-03</internalNodes>
          <leafValues>
            -1.8341241776943207e-01 4.4219419360160828e-01</leafValues></_>
        <_>
          <internalNodes>
            0 -1 107 1.7767437384463847e-04</internalNodes>
          <leafValues>
            1.1343718320131302e-01 -6.3507884740829468e-01</leafValues></_>
        <_>
          <internalNodes>
            0 -1 108 -1.7999064584728330e-04</internalNodes>
          <leafValues>
            -6.6431790590286255e-01 1.1415322870016098e-01</leafValues></_>
        <_>
          <internalNodes>
            0 -1 10 -1.2364711146801710e-03</internalNodes>
          <leafValues>
            6.5568292140960693e-01 -1.2222816795110703e-01</leafValues></_></weakClassifiers></_>
    <!-- stage 7 -->
    <_>
      <maxWeakCount>20</maxWeakCount>
      <stageThreshold>-1.0294632911682129e+00</stageThreshold>
      <weakClassifiers>
        <_>
          <internalNodes>
            0 -1 95 9.4286771491169930e-04</internalNodes>
          <leafValues>
            -3.9603960514068604e-01 5.4441261291503906e-01</leafValues></_>
        <_>
          <internalNodes>
            0 -1 75 -1.2110181152820587e-02</internalNodes>
          <leafValues>
            3.7264204025268555e-01 -4.0584436058998108e-01</leafValues></_>
        <_>
          <internalNodes>
            0 -1 84 8.1730552483350039e-04</internalNodes>
          <leafValues>
            -3.4542903304100037e-01 2.7244541049003601e-01</leafValues></_>
        <_>
          <internalNodes>
            0 -1 53 -5.4687942611053586e-04</internalNodes>
          <leafValues>
            3.2979539036750793e-01 -2.9573550820350647e-01</leafValues></_>
        <_>
          <internalNodes>
            0 -1 154 -1.7928169108927250e-04</internalNodes>
          <leafValues>
            -4.0766876935958862e-01 2.0865768194198608e-01</leafValues></_>
        <_>
          <internalNodes>
            0 -1 152 -3.8401631172746420e-05</internalNodes>
          <leafValues>
            1.3081499934196472e-01 -6.7563462257385254e-01</leafValues></_>
        <_>
          <internalNodes>
            0 -1 132 5.1425728015601635e-03</internalNodes>
          <leafValues>
            7.0454485714435577e-02 -7.0991253852844238e-01</leafValues></_>
        <_>
          <internalNodes>
            0 -1 141 4.1566620348021388e-04</internalNodes>
          <leafValues>
            -3.2260847091674805e-01 2.7995893359184265e-01</leafValues></_>
        <_>
          <internalNodes>
            0 -1 190 -1.0554364416748285e-03</internalNodes>
          <leafValues>
            2.9334563016891479e-01 -2.1850736439228058e-01</leafValues></_>
        <_>
          <internalNodes>
            0 -1 98 5.5228946730494499e-03</internalNodes>
          <leafValues>
            1.0608571022748947e-01 -7.4176865816116333e-01</leafValues></_>
        <_>
          <internalNodes>
            0 -1 117 -1.9467881065793335e-04</internalNodes>
          <leafValues>
            -7.8169667720794678e-01 6.5890520811080933e-02</leafValues></_>
        <_>
          <internalNodes>
            0 -1 28 7.3109182994812727e-04</internalNodes>
          <leafValues>
            -3.7171047925949097e-01 1.6629619896411896e-01</leafValues></_>
        <_>
          <internalNodes>
            0 -1 47 -3.4069601679220796e-04</internalNodes>
          <leafValues>
            4.2572402954101562e-01 -1.6189073026180267e-01</leafValues></_>
        <_>
          <internalNodes>
            0 -1 57 8.2066766917705536e-03</internalNodes>
          <leafValues>
            1.0706789791584015e-01 -7.0061933994293213e-01</leafValues></_>
        <_>
          <internalNodes>
            0 -1 65 9.0851017739623785e-04</internalNodes>
          <leafValues>
            -2.9224103689193726e-01 2.3243805766105652e-01</leafValues></_>
        <_>
          <internalNodes>
            0 -1 174 6.7564986238721758e-05</internalNodes>
          <leafValues>
            1.5525604784488678e-01 -4.4326916337013245e-01</leafValues></_>
        <_>
          <internalNodes>
            0 -1 126 -3.1181368976831436e-03</internalNodes>
          <leafValues>
            3.9647182822227478e-01 -1.7529731988906860e-01</leafValues></_>
        <_>
          <internalNodes>
            0 -1 177 -6.5540400100871921e-04</internalNodes>
          <leafValues>
            2.6584428548812866e-01 -2.3502475023269653e-01</leafValues></_>
        <_>
          <internalNodes>
            0 -1 16 -2.3850603029131889e-03</internalNodes>
          <leafValues>
            3.4310284256935120e-01 -2.2566033899784088e-01</leafValues></_>
        <_>
          <internalNodes>
            0 -1 111 -2.2080220514908433e-04</internalNodes>
          <leafValues>
            -8.8490033149719238e-01 7.9816453158855438e-02</leafValues></_></weakClassifiers></_>
    <!-- stage 8 -->
    <_>
      <maxWeakCount>26</maxWeakCount>
      <stageThreshold>-1.0559262037277222e+00</stageThreshold>
      <weakClassifiers>
        <_>
          <internalNodes>
            0 -1 106 1.8693031743168831e-02</internalNodes>
          <leafValues>
            -7.7959574759006500e-02 5.9060806035995483e-01</leafValues></_>
        <_>
          <internalNodes>
            0 -1 67 5.3321418818086386e-04</internalNodes>
          <leafValues>
            -3.0609861016273499e-01 3.5151156783103943e-01</leafValues></_>
        <_>
          <internalNodes>
            0 -1 181 2.2241790429688990e-04</internalNodes>
          <leafValues>
            -3.5496637225151062e-01 2.6280277967453003e-01</leafValues></_>
        <_>
          <internalNodes>
            0 -1 111 1.4787213876843452e-04</internalNodes>
          <leafValues>
            1.7935276031494141e-01 -5.1413035392761230e-01</leafValues></_>
        <_>
          <internalNodes>
            0 -1 154 1.5020264072518330e-05</internalNodes>
          <leafValues>
            1.2420315295457840e-01 -5.9896248579025269e-01</leafValues></_>
        <_>
          <internalNodes>
            0 -1 26 5.7344255037605762e-04</internalNodes>
          <leafValues>
            -2.2246822714805603e-01 3.6107817292213440e-01</leafValues></_>
        <_>
          <internalNodes>
            0 -1 164 4.3386644683778286e-03</internalNodes>
          <leafValues>
            6.3317686319351196e-02 -9.1291224956512451e-01</leafValues></_>
        <_>
          <internalNodes>
            0 -1 72 1.2307206634432077e-04</internalNodes>
          <leafValues>
            -5.8223778009414673e-01 8.8630668818950653e-02</leafValues></_>
        <_>
          <internalNodes>
            0 -1 153 -1.2030906509608030e-04</internalNodes>
          <leafValues>
            -3.9250707626342773e-01 1.8748906254768372e-01</leafValues></_>
        <_>
          <internalNodes>
            0 -1 36 5.7449121959507465e-04</internalNodes>
          <leafValues>
            -2.3502080142498016e-01 4.0325930714607239e-01</leafValues></_>
        <_>
          <internalNodes>
            0 -1 41 3.4060315228998661e-03</internalNodes>
          <leafValues>
            -3.6020374298095703e-01 1.7772358655929565e-01</leafValues></_>
        <_>
          <internalNodes>
            0 -1 100 -1.1106100282631814e-04</internalNodes>
          <leafValues>
            -5.6308525800704956e-01 1.1843024939298630e-01</leafValues></_>
        <_>
          <internalNodes>
            0 -1 182 2.7955034747719765e-03</internalNodes>
          <leafValues>
            -2.3211257159709930e-01 3.1673038005828857e-01</leafValues></_>
        <_>
          <internalNodes>
            0 -1 179 -1.8902004230767488e-03</internalNodes>
          <leafValues>
            2.8269284963607788e-01 -2.2712291777133942e-01</leafValues></_>
        <_>
          <internalNodes>
            0 -1 143 9.6833995485212654e-05</internalNodes>
          <leafValues>
            1.1110285669565201e-01 -6.2469762563705444e-01</leafValues></_>
        <_>
          <internalNodes>
            0 -1 66 1.4467315748333931e-02</internalNodes>
          <leafValues>
            -1.0367462784051895e-01 6.5612137317657471e-01</leafValues></_>
        <_>
          <internalNodes>
            0 -1 88 6.5416470170021057e-02</internalNodes>
          <leafValues>
            1.1398950964212418e-01 -6.3242083787918091e-01</leafValues></_>
        <_>
          <internalNodes>
            0 -1 138 3.2896851189434528e-04</internalNodes>
          <leafValues>
            -2.2621028125286102e-01 2.7395880222320557e-01</leafValues></_>
        <_>
          <internalNodes>
            0 -1 97 -3.9344967808574438e-04</internalNodes>
          <leafValues>
            4.6903687715530396e-01 -1.4509625732898712e-01</leafValues></_>
        <_>
          <internalNodes>
            0 -1 168 1.1223326146136969e-04</internalNodes>
          <leafValues>
            9.2572711408138275e-02 -7.0753055810928345e-01</leafValues></_>
        <_>
          <internalNodes>
            0 -1 14 1.0288418270647526e-03</internalNodes>
          <leafValues>
            -1.5927651524543762e-01 3.9643067121505737e-01</leafValues></_>
        <_>
          <internalNodes>
            0 -1 155 -2.5570316938683391e-04</internalNodes>
          <leafValues>
            -5.9621250629425049e-01 1.0513211041688919e-01</leafValues></_>
        <_>
          <internalNodes>
            0 -1 19 -2.2862344048917294e-03</internalNodes>
          <leafValues>
            3.9233386516571045e-01 -1.6356506943702698e-01</leafValues></_>
        <_>
          <internalNodes>
            0 -1 40 -3.4541410859674215e-03</internalNodes>
          <leafValues>
            3.4909987449645996e-01 -1.6010010242462158e-01</leafValues></_>
        <_>
          <internalNodes>
            0 -1 170 2.4976134300231934e-03</internalNodes>
          <leafValues>
            -7.0321984589099884e-02 7.6749318838119507e-01</leafValues></_>
        <_>
          <internalNodes>
            0 -1 123 1.0022022761404514e-03</internalNodes>
          <leafValues>
            -2.0783954858779907e-01 2.3852455615997314e-01</leafValues></_></weakClassifiers></_>
    <!-- stage 9 -->
    <_>
      <maxWeakCount>28</maxWeakCount>
      <stageThreshold>-8.8759583234786987e-01</stageThreshold>
      <weakClassifiers>
        <_>
          <internalNodes>
            0 -1 148 8.4810191765427589e-04</internalNodes>
          <leafValues>
            -1.4728681743144989e-01 5.2647972106933594e-01</leafValues></_>
        <_>
          <internalNodes>
            0 -1 165 2.0354201551526785e-03</internalNodes>
          <leafValues>
            -3.7260648608207703e-01 2.6792815327644348e-01</leafValues></_>
        <_>
          <internalNodes>
            0 -1 32 8.5622887127101421e-04</internalNodes>
          <leafValues>
            -3.6441010236740112e-01 2.2989460825920105e-01</leafValues></_>
        <_>
          <internalNodes>
            0 -1 144 -1.3420093455351889e-04</internalNodes>
          <leafValues>
            -6.0907930135726929e-01 1.3082484900951385e-01</leafValues></_>
        <_>
          <internalNodes>
            0 -1 79 5.9610642492771149e-03</internalNodes>
          <leafValues>
            -5.3457438945770264e-01 1.4699506759643555e-01</leafValues></_>
        <_>
          <internalNodes>
            0 -1 100 2.3946045257616788e-04</internalNodes>
          <leafValues>
            1.4040562510490417e-01 -4.9178901314735413e-01</leafValues></_>
        <_>
          <internalNodes>
            0 -1 55 7.5893278699368238e-04</internalNodes>
          <leafValues>
            -2.9261869192123413e-01 1.9967658817768097e-01</leafValues></_>
        <_>
          <internalNodes>
            0 -1 173 1.0981086234096438e-04</internalNodes>
          <leafValues>
            8.7887793779373169e-02 -6.6663992404937744e-01</leafValues></_>
        <_>
          <internalNodes>
            0 -1 109 1.7462819232605398e-04</internalNodes>
          <leafValues>
            8.5030265152454376e-02 -5.9733581542968750e-01</leafValues></_>
        <_>
          <internalNodes>
            0 -1 109 -2.5002955226227641e-04</internalNodes>
          <leafValues>
            -2.9919788241386414e-01 1.9601878523826599e-01</leafValues></_>
        <_>
          <internalNodes>
            0 -1 37 -1.8905606120824814e-03</internalNodes>
          <leafValues>
            3.8942137360572815e-01 -1.9054251909255981e-01</leafValues></_>
        <_>
          <internalNodes>
            0 -1 189 -9.5314584905281663e-04</internalNodes>
          <leafValues>
            4.2080906033515930e-01 -1.0121187567710876e-01</leafValues></_>
        <_>
          <internalNodes>
            0 -1 45 3.4435160923749208e-03</internalNodes>
          <leafValues>
            -1.6578261554241180e-01 3.4562286734580994e-01</leafValues></_>
        <_>
          <internalNodes>
            0 -1 76 -2.4110700469464064e-03</internalNodes>
          <leafValues>
            3.5669845342636108e-01 -1.5626877546310425e-01</leafValues></_>
        <_>
          <internalNodes>
            0 -1 62 -1.0844316566362977e-03</internalNodes>
          <leafValues>
            3.2029116153717041e-01 -1.7519845068454742e-01</leafValues></_>
        <_>
          <internalNodes>
            0 -1 113 2.1644470689352602e-04</internalNodes>
          <leafValues>
            1.8661041557788849e-01 -3.4722480177879333e-01</leafValues></_>
        <_>
          <internalNodes>
            0 -1 73 4.7061819583177567e-02</internalNodes>
          <leafValues>
            -1.1806956678628922e-01 5.2410072088241577e-01</leafValues></_>
        <_>
          <internalNodes>
            0 -1 185 5.7015480706468225e-04</internalNodes>
          <leafValues>
            -1.2423759698867798e-01 4.1115218400955200e-01</leafValues></_>
        <_>
          <internalNodes>
            0 -1 24 -1.7809234559535980e-02</internalNodes>
          <leafValues>
            5.2441042661666870e-01 -9.1624952852725983e-02</leafValues></_>
        <_>
          <internalNodes>
            0 -1 187 1.8201041966676712e-03</internalNodes>
          <leafValues>
            -1.7115733027458191e-01 3.4080463647842407e-01</leafValues></_>
        <_>
          <internalNodes>
            0 -1 124 2.1032633259892464e-02</internalNodes>
          <leafValues>
            1.6821435093879700e-01 -3.7618267536163330e-01</leafValues></_>
        <_>
          <internalNodes>
            0 -1 72 5.4267433006316423e-04</internalNodes>
          <leafValues>
            -3.6947211623191833e-01 1.2920834124088287e-01</leafValues></_>
        <_>
          <internalNodes>
            0 -1 152 -7.3459581471979618e-04</internalNodes>
          <leafValues>
            -1.9089651107788086e-01 2.5648820400238037e-01</leafValues></_>
        <_>
          <internalNodes>
            0 -1 186 2.1267465781420469e-03</internalNodes>
          <leafValues>
            -1.2940086424350739e-01 3.8323941826820374e-01</leafValues></_>
        <_>
          <internalNodes>
            0 -1 25 -7.9704693052917719e-04</internalNodes>
          <leafValues>
            3.7538161873817444e-01 -1.2918442487716675e-01</leafValues></_>
        <_>
          <internalNodes>
            0 -1 8 4.8131989315152168e-03</internalNodes>
          <leafValues>
            -1.3369974493980408e-01 4.7128859162330627e-01</leafValues></_>
        <_>
          <internalNodes>
            0 -1 134 3.4143505617976189e-03</internalNodes>
          <leafValues>
            6.2160994857549667e-02 -9.5231717824935913e-01</leafValues></_>
        <_>
          <internalNodes>
            0 -1 86 4.4943215325474739e-03</internalNodes>
          <leafValues>
            -5.8844333887100220e-01 6.6987127065658569e-02</leafValues></_></weakClassifiers></_>
    <!-- stage 10 -->
    <_>
      <maxWeakCount>30</maxWeakCount>
      <stageThreshold>-8.7453228235244751e-01</stageThreshold>
      <weakClassifiers>
        <_>
          <internalNodes>
            0 -1 74 3.7280105054378510e-02</internalNodes>
          <leafValues>
            -9.4582978636026382e-03 5.9271305799484253e-01</leafValues></_>
        <_>
          <internalNodes>
            0 -1 93 1.1000342783518136e-04</internalNodes>
          <leafValues>
            -4.3550086021423340e-01 2.1925866603851318e-01</leafValues></_>
        <_>
          <internalNodes>
            0 -1 61 5.3578531369566917e-03</internalNodes>
          <leafValues>
            -2.3111566901206970e-01 3.7242382764816284e-01</leafValues></_>
        <_>
          <internalNodes>
            0 -1 111 -1.5202493523247540e-04</internalNodes>
          <leafValues>
            -7.5303971767425537e-01 9.5153488218784332e-02</leafValues></_>
        <_>
          <internalNodes>
            0 -1 107 -2.0695899729616940e-04</internalNodes>
          <leafValues>
            -6.2816858291625977e-01 9.0190000832080841e-02</leafValues></_>
        <_>
          <internalNodes>
            0 -1 183 3.2205812749452889e-04</internalNodes>
          <leafValues>
            -2.8293752670288086e-01 2.3153062164783478e-01</leafValues></_>
        <_>
          <internalNodes>
            0 -1 95 1.3100371696054935e-02</internalNodes>
          <leafValues>
            4.5698367059230804e-02 -7.1420121192932129e-01</leafValues></_>
        <_>
          <internalNodes>
            0 -1 167 1.7835260950960219e-04</internalNodes>
          <leafValues>
            -2.6665455102920532e-01 2.3924407362937927e-01</leafValues></_>
        <_>
          <internalNodes>
            0 -1 107 1.6555667389184237e-04</internalNodes>
          <leafValues>
            1.0304427891969681e-01 -5.8249115943908691e-01</leafValues></_>
        <_>
          <internalNodes>
            0 -1 158 3.4918234450742602e-04</internalNodes>
          <leafValues>
            -2.4864637851715088e-01 2.1251565217971802e-01</leafValues></_>
        <_>
          <internalNodes>
            0 -1 31 6.0779070481657982e-03</internalNodes>
          <leafValues>
            -1.5503711998462677e-01 3.6466813087463379e-01</leafValues></_>
        <_>
          <internalNodes>
            0 -1 176 -8.4975629579275846e-04</internalNodes>
          <leafValues>
            3.6470082402229309e-01 -1.3582970201969147e-01</leafValues></_>
        <_>
          <internalNodes>
            0 -1 175 -4.5424909330904484e-05</internalNodes>
          <leafValues>
            1.4230380952358246e-01 -3.9854654669761658e-01</leafValues></_>
        <_>
          <internalNodes>
            0 -1 150 1.4989392366260290e-03</internalNodes>
          <leafValues>
            -7.9436078667640686e-02 7.4905687570571899e-01</leafValues></_>
        <_>
          <internalNodes>
            0 -1 71 -2.7755758492276073e-04</internalNodes>
          <leafValues>
            -5.7252812385559082e-01 1.1007285863161087e-01</leafValues></_>
        <_>
          <internalNodes>
            0 -1 53 -8.9825963368639350e-04</internalNodes>
          <leafValues>
            2.4412891268730164e-01 -2.1847799420356750e-01</leafValues></_>
        <_>
          <internalNodes>
            0 -1 169 1.5036843251436949e-04</internalNodes>
          <leafValues>
            1.0562773048877716e-01 -4.3415668606758118e-01</leafValues></_>
        <_>
          <internalNodes>
            0 -1 94 -5.2409665659070015e-03</internalNodes>
          <leafValues>
            -8.9099353551864624e-01 4.2386189103126526e-02</leafValues></_>
        <_>
          <internalNodes>
            0 -1 161 -8.8777567725628614e-05</internalNodes>
          <leafValues>
            2.7023899555206299e-01 -1.8025444447994232e-01</leafValues></_>
        <_>
          <internalNodes>
            0 -1 102 6.7673550802282989e-05</internalNodes>
          <leafValues>
            1.7073175311088562e-01 -2.7594128251075745e-01</leafValues></_>
        <_>
          <internalNodes>
            0 -1 162 -3.2675988040864468e-04</internalNodes>
          <leafValues>
            1.4350982010364532e-01 -3.0441203713417053e-01</leafValues></_>
        <_>
          <internalNodes>
            0 -1 149 -2.2919391631148756e-04</internalNodes>
          <leafValues>
            -3.2839450240135193e-01 1.6255712509155273e-01</leafValues></_>
        <_>
          <internalNodes>
            0 -1 6 1.9279394298791885e-02</internalNodes>
          <leafValues>
            -1.6270318627357483e-01 3.2937037944793701e-01</leafValues></_>
        <_>
          <internalNodes>
            0 -1 51 -3.7058180896565318e-04</internalNodes>
          <leafValues>
            4.0304696559906006e-01 -1.0975801199674606e-01</leafValues></_>
        <_>
          <internalNodes>
            0 -1 22 2.0467251539230347e-02</internalNodes>
          <leafValues>
            -8.0308906733989716e-02 5.5849117040634155e-01</leafValues></_>
        <_>
          <internalNodes>
            0 -1 112 -1.2506515486165881e-04</internalNodes>
          <leafValues>
            -3.3696618676185608e-01 1.4776079356670380e-01</leafValues></_>
        <_>
          <internalNodes>
            0 -1 0 -1.0473261773586273e-01</internalNodes>
          <leafValues>
            -4.0213769674301147e-01 1.1425363272428513e-01</leafValues></_>
        <_>
          <internalNodes>
            0 -1 13 -4.3339098920114338e-04</internalNodes>
          <leafValues>
            3.0838051438331604e-01 -1.4465959370136261e-01</leafValues></_>
        <_>
          <internalNodes>
            0 -1 28 7.5117480009794235e-03</internalNodes>
          <leafValues>
            1.1287582665681839e-01 -4.2007401585578918e-01</leafValues></_>
        <_>
          <internalNodes>
            0 -1 131 -1.8600068870000541e-04</internalNodes>
          <leafValues>
            2.4367161095142365e-01 -1.9342471659183502e-01</leafValues></_></weakClassifiers></_>
    <!-- stage 11 -->
    <_>
      <maxWeakCount>31</maxWeakCount>
      <stageThreshold>-8.7740975618362427e-01</stageThreshold>
      <weakClassifiers>
        <_>
          <internalNodes>
            0 -1 3 3.0419898033142090e-01</internalNodes>
          <leafValues>
            2.6211278513073921e-02 6.0166549682617188e-01</leafValues></_>
        <_>
          <internalNodes>
            0 -1 133 2.8889818349853158e-04</internalNodes>
          <leafValues>
            -3.7544232606887817e-01 2.2593076527118683e-01</leafValues></_>
        <_>
          <internalNodes>
            0 -1 70 1.4615258201956749e-02</internalNodes>
          <leafValues>
            9.3051634728908539e-02 -6.7569059133529663e-01</leafValues></_>
        <_>
          <internalNodes>
            0 -1 130 8.8306348770856857e-03</internalNodes>
          <leafValues>
            1.1539509892463684e-01 -5.4864209890365601e-01</leafValues></_>
        <_>
          <internalNodes>
            0 -1 17 -2.6625925675034523e-03</internalNodes>
          <leafValues>
            2.3716801404953003e-01 -2.6225861907005310e-01</leafValues></_>
        <_>
          <internalNodes>
            0 -1 147 1.9402687030378729e-04</internalNodes>
          <leafValues>
            8.3870306611061096e-02 -6.7762583494186401e-01</leafValues></_>
        <_>
          <internalNodes>
            0 -1 181 1.8682319205254316e-04</internalNodes>
          <leafValues>
            -3.2451328635215759e-01 1.9503895938396454e-01</leafValues></_>
        <_>
          <internalNodes>
            0 -1 139 -3.4947218373417854e-03</internalNodes>
          <leafValues>
            -7.6307326555252075e-01 7.1800470352172852e-02</leafValues></_>
        <_>
          <internalNodes>
            0 -1 180 -5.3823343478143215e-04</internalNodes>
          <leafValues>
            3.8406151533126831e-01 -1.7050938308238983e-01</leafValues></_>
        <_>
          <internalNodes>
            0 -1 156 -1.0374543489888310e-03</internalNodes>
          <leafValues>
            3.0359351634979248e-01 -2.0310102403163910e-01</leafValues></_>
        <_>
          <internalNodes>
            0 -1 172 1.4595447282772511e-05</internalNodes>
          <leafValues>
            8.1081382930278778e-02 -5.4781723022460938e-01</leafValues></_>
        <_>
          <internalNodes>
            0 -1 151 1.5178775356616825e-05</internalNodes>
          <leafValues>
            1.3703930377960205e-01 -3.9832013845443726e-01</leafValues></_>
        <_>
          <internalNodes>
            0 -1 116 -8.5717358160763979e-05</internalNodes>
          <leafValues>
            -5.5694913864135742e-01 9.3450896441936493e-02</leafValues></_>
        <_>
          <internalNodes>
            0 -1 136 -4.2025267612189054e-04</internalNodes>
          <leafValues>
            2.4551348388195038e-01 -2.3468396067619324e-01</leafValues></_>
        <_>
          <internalNodes>
            0 -1 87 -8.7999925017356873e-04</internalNodes>
          <leafValues>
            -7.7092444896697998e-01 5.3817406296730042e-02</leafValues></_>
        <_>
          <internalNodes>
            0 -1 118 2.4269417917821556e-04</internalNodes>
          <leafValues>
            1.5183903276920319e-01 -3.1079703569412231e-01</leafValues></_>
        <_>
          <internalNodes>
            0 -1 90 -1.7228300566785038e-04</internalNodes>
          <leafValues>
            3.5758903622627258e-01 -1.5365861356258392e-01</leafValues></_>
        <_>
          <internalNodes>
            0 -1 191 -7.1750517236068845e-04</internalNodes>
          <leafValues>
            3.4675574302673340e-01 -1.4129386842250824e-01</leafValues></_>
        <_>
          <internalNodes>
            0 -1 91 -4.4432627037167549e-03</internalNodes>
          <leafValues>
            -6.5579873323440552e-01 8.2540437579154968e-02</leafValues></_>
        <_>
          <internalNodes>
            0 -1 159 -1.4205131446942687e-04</internalNodes>
          <leafValues>
            3.1599771976470947e-01 -1.7810212075710297e-01</leafValues></_>
        <_>
          <internalNodes>
            0 -1 12 5.5697178468108177e-03</internalNodes>
          <leafValues>
            -1.1897511780261993e-01 4.7161149978637695e-01</leafValues></_>
        <_>
          <internalNodes>
            0 -1 119 6.7634289734996855e-05</internalNodes>
          <leafValues>
            8.5919067263603210e-02 -6.0794562101364136e-01</leafValues></_>
        <_>
          <internalNodes>
            0 -1 30 -9.6489611314609647e-04</internalNodes>
          <leafValues>
            3.9619481563568115e-01 -1.3535471260547638e-01</leafValues></_>
        <_>
          <internalNodes>
            0 -1 105 3.3373525366187096e-03</internalNodes>
          <leafValues>
            6.3506849110126495e-02 -8.7802839279174805e-01</leafValues></_>
        <_>
          <internalNodes>
            0 -1 29 5.2271428285166621e-04</internalNodes>
          <leafValues>
            -2.2042164206504822e-01 2.2767487168312073e-01</leafValues></_>
        <_>
          <internalNodes>
            0 -1 132 -1.3552065938711166e-03</internalNodes>
          <leafValues>
            -6.8262010812759399e-01 7.7443294227123260e-02</leafValues></_>
        <_>
          <internalNodes>
            0 -1 27 -9.4735453603789210e-04</internalNodes>
          <leafValues>
            1.9167184829711914e-01 -2.6148959994316101e-01</leafValues></_>
        <_>
          <internalNodes>
            0 -1 104 2.4498035199940205e-03</internalNodes>
          <leafValues>
            -6.7482829093933105e-02 7.2040021419525146e-01</leafValues></_>
        <_>
          <internalNodes>
            0 -1 121 -2.4365202989429235e-04</internalNodes>
          <leafValues>
            -4.3718373775482178e-01 1.1363562196493149e-01</leafValues></_>
        <_>
          <internalNodes>
            0 -1 44 -7.1611953899264336e-04</internalNodes>
          <leafValues>
            3.4641578793525696e-01 -1.4928434789180756e-01</leafValues></_>
        <_>
          <internalNodes>
            0 -1 166 -5.7924711145460606e-03</internalNodes>
          <leafValues>
            4.0832066535949707e-01 -9.3280777335166931e-02</leafValues></_></weakClassifiers></_>
    <!-- stage 12 -->
    <_>
      <maxWeakCount>37</maxWeakCount>
      <stageThreshold>-9.3375217914581299e-01</stageThreshold>
      <weakClassifiers>
        <_>
          <internalNodes>
            0 -1 20 1.0955236107110977e-01</internalNodes>
          <leafValues>
            -2.0608440041542053e-02 5.4788815975189209e-01</leafValues></_>
        <_>
          <internalNodes>
            0 -1 154 -1.4075347280595452e-04</internalNodes>
          <leafValues>
            -3.5811015963554382e-01 2.3520357906818390e-01</leafValues></_>
        <_>
          <internalNodes>
            0 -1 99 -4.5407261495711282e-05</internalNodes>
          <leafValues>
            2.6834931969642639e-01 -2.9546338319778442e-01</leafValues></_>
        <_>
          <internalNodes>
            0 -1 143 -1.3629418390337378e-04</internalNodes>
          <leafValues>
            -4.6127864718437195e-01 1.1508835107088089e-01</leafValues></_>
        <_>
          <internalNodes>
            0 -1 34 -1.2995507568120956e-03</internalNodes>
          <leafValues>
            2.3301938176155090e-01 -2.6368400454521179e-01</leafValues></_>
        <_>
          <internalNodes>
            0 -1 146 -2.1713195019401610e-04</internalNodes>
          <leafValues>
            -7.8393870592117310e-01 6.3283696770668030e-02</leafValues></_>
        <_>
          <internalNodes>
            0 -1 128 1.8195090815424919e-03</internalNodes>
          <leafValues>
            -2.2606399655342102e-01 2.1608413755893707e-01</leafValues></_>
        <_>
          <internalNodes>
            0 -1 129 -1.4121470740064979e-03</internalNodes>
          <leafValues>
            1.9245229661464691e-01 -2.6184216141700745e-01</leafValues></_>
        <_>
          <internalNodes>
            0 -1 11 -3.6739245988428593e-03</internalNodes>
          <leafValues>
            3.4951615333557129e-01 -1.2316303700208664e-01</leafValues></_>
        <_>
          <internalNodes>
            0 -1 144 9.1455964138731360e-05</internalNodes>
          <leafValues>
            7.2232857346534729e-02 -5.1874917745590210e-01</leafValues></_>
        <_>
          <internalNodes>
            0 -1 58 -1.4154959935694933e-03</internalNodes>
          <leafValues>
            1.5194837749004364e-01 -2.8716245293617249e-01</leafValues></_>
        <_>
          <internalNodes>
            0 -1 54 -1.5791642363183200e-04</internalNodes>
          <leafValues>
            1.7819561064243317e-01 -2.3323367536067963e-01</leafValues></_>
        <_>
          <internalNodes>
            0 -1 48 -6.0330244014039636e-04</internalNodes>
          <leafValues>
            2.5445193052291870e-01 -1.7667771875858307e-01</leafValues></_>
        <_>
          <internalNodes>
            0 -1 68 5.8244140818715096e-03</internalNodes>
          <leafValues>
            6.0888506472110748e-02 -8.4156274795532227e-01</leafValues></_>
        <_>
          <internalNodes>
            0 -1 18 1.9914703443646431e-03</internalNodes>
          <leafValues>
            -1.6468910872936249e-01 2.5656166672706604e-01</leafValues></_>
        <_>
          <internalNodes>
            0 -1 60 8.0899432301521301e-02</internalNodes>
          <leafValues>
            7.7741354703903198e-02 -5.0678157806396484e-01</leafValues></_>
        <_>
          <internalNodes>
            0 -1 92 1.5540482476353645e-02</internalNodes>
          <leafValues>
            5.1719523966312408e-02 -7.6420557498931885e-01</leafValues></_>
        <_>
          <internalNodes>
            0 -1 126 -1.2847160687670112e-03</internalNodes>
          <leafValues>
            2.2622425854206085e-01 -1.8450316786766052e-01</leafValues></_>
        <_>
          <internalNodes>
            0 -1 59 2.2155754268169403e-03</internalNodes>
          <leafValues>
            -1.6324833035469055e-01 2.2342687845230103e-01</leafValues></_>
        <_>
          <internalNodes>
            0 -1 120 -6.7667700932361186e-05</internalNodes>
          <leafValues>
            -1.7249749600887299e-01 2.1440084278583527e-01</leafValues></_>
        <_>
          <internalNodes>
            0 -1 35 -3.0209950637072325e-03</internalNodes>
          <leafValues>
            3.6702540516853333e-01 -1.5870518982410431e-01</leafValues></_>
        <_>
          <internalNodes>
            0 -1 100 -1.0504202509764582e-04</internalNodes>
          <leafValues>
            -4.5880234241485596e-01 9.3736447393894196e-02</leafValues></_>
        <_>
          <internalNodes>
            0 -1 63 3.6581512540578842e-02</internalNodes>
          <leafValues>
            -5.5628340691328049e-02 8.3785325288772583e-01</leafValues></_>
        <_>
          <internalNodes>
            0 -1 127 -1.7115121707320213e-02</internalNodes>
          <leafValues>
            -8.0723088979721069e-01 6.4767591655254364e-02</leafValues></_>
        <_>
          <internalNodes>
            0 -1 101 8.1111502368003130e-04</internalNodes>
          <leafValues>
            4.9488127231597900e-02 -7.1213626861572266e-01</leafValues></_>
        <_>
          <internalNodes>
            0 -1 178 5.5276724742725492e-04</internalNodes>
          <leafValues>
            -1.5602047741413116e-01 2.6381674408912659e-01</leafValues></_>
        <_>
          <internalNodes>
            0 -1 21 -2.4403673596680164e-03</internalNodes>
          <leafValues>
            3.6938685178756714e-01 -1.0911952704191208e-01</leafValues></_>
        <_>
          <internalNodes>
            0 -1 7 9.5555651932954788e-03</internalNodes>
          <leafValues>
            -1.4879554510116577e-01 2.6214063167572021e-01</leafValues></_>
        <_>
          <internalNodes>
            0 -1 77 -5.3411363624036312e-03</internalNodes>
          <leafValues>
            3.0682379007339478e-01 -1.3275383412837982e-01</leafValues></_>
        <_>
          <internalNodes>
            0 -1 184 4.0103984065353870e-04</internalNodes>
          <leafValues>
            -1.8701021373271942e-01 2.0972213149070740e-01</leafValues></_>
        <_>
          <internalNodes>
            0 -1 157 4.8827723367139697e-04</internalNodes>
          <leafValues>
            -6.2663391232490540e-02 6.5528523921966553e-01</leafValues></_>
        <_>
          <internalNodes>
            0 -1 115 2.4090628721751273e-04</internalNodes>
          <leafValues>
            -4.0312486886978149e-01 1.2359172105789185e-01</leafValues></_>
        <_>
          <internalNodes>
            0 -1 143 2.3534019419457763e-04</internalNodes>
          <leafValues>
            4.6004928648471832e-02 -9.1929394006729126e-01</leafValues></_>
        <_>
          <internalNodes>
            0 -1 110 6.6850157454609871e-03</internalNodes>
          <leafValues>
            8.2564897835254669e-02 -4.0323638916015625e-01</leafValues></_>
        <_>
          <internalNodes>
            0 -1 56 4.7908222768455744e-05</internalNodes>
          <leafValues>
            -3.7815853953361511e-01 1.1547677218914032e-01</leafValues></_>
        <_>
          <internalNodes>
            0 -1 64 1.2437373399734497e-02</internalNodes>
          <leafValues>
            -9.2205174267292023e-02 4.6570155024528503e-01</leafValues></_>
        <_>
          <internalNodes>
            0 -1 69 6.6115340450778604e-04</internalNodes>
          <leafValues>
            2.2801707684993744e-01 -2.0611533522605896e-01</leafValues></_></weakClassifiers></_></stages>
  <features>
    <_>
      <rects>
        <_>
          0 5 20 10 -1.</_>
        <_>
          10 5 10 10 2.</_></rects>
      <tilted>0</tilted></_>
    <_>
      <rects>
        <_>
          1 13 12 6 -1.</_>
        <_>
          1 13 6 3 2.</_>
        <_>
          7 16 6 3 2.</_></rects>
      <tilted>0</tilted></_>
    <_>
      <rects>
        <_>
          2 6 18 9 -1.</_>
        <_>
          8 6 6 9 3.</_></rects>
      <tilted>0</tilted></_>
    <_>
      <rects>
        <_>
          3 5 15 11 -1.</_>
        <_>
          8 5 5 11 3.</_></rects>
      <tilted>0</tilted></_>
    <_>
      <rects>
        <_>
          3 6 15 9 -1.</_>
        <_>
          8 6 5 9 3.</_></rects>
      <tilted>0</tilted></_>
    <_>
      <rects>
        <_>
          3 7 15 9 -1.</_>
        <_>
          8 7 5 9 3.</_></rects>
      <tilted>0</tilted></_>
    <_>
      <rects>
        <_>
          3 14 12 1 -1.</_>
        <_>
          7 14 4 1 3.</_></rects>
      <tilted>0</tilted></_>
    <_>
      <rects>
        <_>
          4 4 6 6 -1.</_>
        <_>
          4 6 6 2 3.</_></rects>
      <tilted>0</tilted></_>
    <_>
      <rects>
        <_>
          4 10 4 3 -1.</_>
        <_>
          4 11 4 1 3.</_></rects>
      <tilted>0</tilted></_>
    <_>
      <rects>
        <_>
          4 11 4 2 -1.</_>
        <_>
          6 11 2 2 2.</_></rects>
      <tilted>0</tilted></_>
    <_>
      <rects>
        <_>
          4 12 8 1 -1.</_>
        <_>
          8 12 4 1 2.</_></rects>
      <tilted>0</tilted></_>
    <_>
      <rects>
        <_>
          5 7 5 3 -1.</_>
        <_>
          5 8 5 1 3.</_></rects>
      <tilted>0</tilted></_>
    <_>
      <rects>
        <_>
          5 8 10 2 -1.</_>
        <_>
          5 8 5 1 2.</_>
        <_>
          10 9 5 1 2.</_></rects>
      <tilted>0</tilted></_>
    <_>
      <rects>
        <_>
          5 9 1 2 -1.</_>
        <_>
          5 10 1 1 2.</_></rects>
      <tilted>0</tilted></_>
    <_>
      <rects>
        <_>
          5 9 1 3 -1.</_>
        <_>
          5 10 1 1 3.</_></rects>
      <tilted>0</tilted></_>
    <_>
      <rects>
        <_>
          5 12 2 1 -1.</_>
        <_>
          6 12 1 1 2.</_></rects>
      <tilted>0</tilted></_>
    <_>
      <rects>
        <_>
          6 3 8 2 -1.</_>
        <_>
          6 4 8 1 2.</_></rects>
      <tilted>0</tilted></_>
    <_>
      <rects>
        <_>
          6 4 3 7 -1.</_>
        <_>
          7 4 1 7 3.</_></rects>
      <tilted>0</tilted></_>
    <_>
      <rects>
        <_>
          6 4 4 2 -1.</_>
        <_>
          6 4 2 1 2.</_>
        <_>
          8 5 2 1 2.</_></rects>
      <tilted>0</tilted></_>
    <_>
      <rects>
        <_>
          6 5 2 3 -1.</_>
        <_>
          6 6 2 1 3.</_></rects>
      <tilted>0</tilted></_>
    <_>
      <rects>
        <_>
          6 5 9 11 -1.</_>
        <_>
          9 5 3 11 3.</_></rects>
      <tilted>0</tilted></_>
    <_>
      <rects>
        <_>
          6 6 2 3 -1.</_>
        <_>
          6 7 2 1 3.</_></rects>
      <tilted>0</tilted></_>
    <_>
      <rects>
        <_>
          6 6 6 2 -1.</_>
        <_>
          8 6 2 2 3.</_></rects>
      <tilted>0</tilted></_>
    <_>
      <rects>
        <_>
          6 6 9 9 -1.</_>
        <_>
          9 6 3 9 3.</_></rects>
      <tilted>0</tilted></_>
    <_>
      <rects>
        <_>
          6 7 10 4 -1.</_>
        <_>
          6 7 5 2 2.</_>
        <_>
          11 9 5 2 2.</_></rects>
      <tilted>0</tilted></_>
    <_>
      <rects>
        <_>
          6 10 1 3 -1.</_>
        <_>
          6 11 1 1 3.</_></rects>
      <tilted>0</tilted></_>
    <_>
      <rects>
        <_>
          6 11 2 2 -1.</_>
        <_>
          6 11 1 1 2.</_>
        <_>
          7 12 1 1 2.</_></rects>
      <tilted>0</tilted></_>
    <_>
      <rects>
        <_>
          6 11 1 6 -1.</_>
        <_>
          6 14 1 3 2.</_></rects>
      <tilted>0</tilted></_>
    <_>
      <rects>
        <_>
          6 11 4 1 -1.</_>
        <_>
          8 11 2 1 2.</_></rects>
      <tilted>0</tilted></_>
    <_>
      <rects>
        <_>
          6 11 2 2 -1.</_>
        <_>
          6 12 2 1 2.</_></rects>
      <tilted>0</tilted></_>
    <_>
      <rects>
        <_>
          6 11 2 3 -1.</_>
        <_>
          6 12 2 1 3.</_></rects>
      <tilted>0</tilted></_>
    <_>
      <rects>
        <_>
          6 11 9 3 -1.</_>
        <_>
          6 12 9 1 3.</_></rects>
      <tilted>0</tilted></_>
    <_>
      <rects>
        <_>
          6 12 2 2 -1.</_>
        <_>
          7 12 1 2 2.</_></rects>
      <tilted>0</tilted></_>
    <_>
      <rects>
        <_>
          6 12 4 4 -1.</_>
        <_>
          8 12 2 4 2.</_></rects>
      <tilted>0</tilted></_>
    <_>
      <rects>
        <_>
          6 12 8 2 -1.</_>
        <_>
          6 13 8 1 2.</_></rects>
      <tilted>0</tilted></_>
    <_>
      <rects>
        <_>
          6 13 8 2 -1.</_>
        <_>
          10 13 4 2 2.</_></rects>
      <tilted>0</tilted></_>
    <_>
      <rects>
        <_>
          6 14 4 2 -1.</_>
        <_>
          6 14 2 1 2.</_>
        <_>
          8 15 2 1 2.</_></rects>
      <tilted>0</tilted></_>
    <_>
      <rects>
        <_>
          6 14 6 2 -1.</_>
        <_>
          8 14 2 2 3.</_></rects>
      <tilted>0</tilted></_>
    <_>
      <rects>
        <_>
          6 14 8 4 -1.</_>
        <_>
          6 16 8 2 2.</_></rects>
      <tilted>0</tilted></_>
    <_>
      <rects>
        <_>
          7 4 7 15 -1.</_>
        <_>
          7 9 7 5 3.</_></rects>
      <tilted>0</tilted></_>
    <_>
      <rects>
        <_>
          7 5 3 5 -1.</_>
        <_>
          8 5 1 5 3.</_></rects>
      <tilted>0</tilted></_>
    <_>
      <rects>
        <_>
          7 5 6 2 -1.</_>
        <_>
          7 6 6 1 2.</_></rects>
      <tilted>0</tilted></_>
    <_>
      <rects>
        <_>
          7 5 6 15 -1.</_>
        <_>
          7 10 6 5 3.</_></rects>
      <tilted>0</tilted></_>
    <_>
      <rects>
        <_>
          7 6 2 1 -1.</_>
        <_>
          8 6 1 1 2.</_></rects>
      <tilted>0</tilted></_>
    <_>
      <rects>
        <_>
          7 6 2 2 -1.</_>
        <_>
          7 6 1 1 2.</_>
        <_>
          8 7 1 1 2.</_></rects>
      <tilted>0</tilted></_>
    <_>
      <rects>
        <_>
          7 6 3 3 -1.</_>
        <_>
          7 7 3 1 3.</_></rects>
      <tilted>0</tilted></_>
    <_>
      <rects>
        <_>
          7 7 7 12 -1.</_>
        <_>
          7 11 7 4 3.</_></rects>
      <tilted>0</tilted></_>
    <_>
      <rects>
        <_>
          7 8 2 1 -1.</_>
        <_>
          8 8 1 1 2.</_></rects>
      <tilted>0</tilted></_>
    <_>
      <rects>
        <_>
          7 8 3 3 -1.</_>
        <_>
          8 8 1 3 3.</_></rects>
      <tilted>0</tilted></_>
    <_>
      <rects>
        <_>
          7 8 6 3 -1.</_>
        <_>
          9 8 2 3 3.</_></rects>
      <tilted>0</tilted></_>
    <_>
      <rects>
        <_>
          7 8 7 9 -1.</_>
        <_>
          7 11 7 3 3.</_></rects>
      <tilted>0</tilted></_>
    <_>
      <rects>
        <_>
          7 9 2 1 -1.</_>
        <_>
          8 9 1 1 2.</_></rects>
      <tilted>0</tilted></_>
    <_>
      <rects>
        <_>
          7 9 1 4 -1.</_>
        <_>
          7 11 1 2 2.</_></rects>
      <tilted>0</tilted></_>
    <_>
      <rects>
        <_>
          7 9 2 4 -1.</_>
        <_>
          7 9 1 2 2.</_>
        <_>
          8 11 1 2 2.</_></rects>
      <tilted>0</tilted></_>
    <_>
      <rects>
        <_>
          7 10 2 2 -1.</_>
        <_>
          7 10 1 1 2.</_>
        <_>
          8 11 1 1 2.</_></rects>
      <tilted>0</tilted></_>
    <_>
      <rects>
        <_>
          7 10 5 2 -1.</_>
        <_>
          7 11 5 1 2.</_></rects>
      <tilted>0</tilted></_>
    <_>
      <rects>
        <_>
          7 11 2 3 -1.</_>
        <_>
          8 11 1 3 2.</_></rects>
      <tilted>0</tilted></_>
    <_>
      <rects>
        <_>
          7 12 6 1 -1.</_>
        <_>
          9 12 2 1 3.</_></rects>
      <tilted>0</tilted></_>
    <_>
      <rects>
        <_>
          7 13 2 4 -1.</_>
        <_>
          7 15 2 2 2.</_></rects>
      <tilted>0</tilted></_>
    <_>
      <rects>
        <_>
          7 14 5 3 -1.</_>
        <_>
          7 15 5 1 3.</_></rects>
      <tilted>0</tilted></_>
    <_>
      <rects>
        <_>
          8 2 6 12 -1.</_>
        <_>
          8 6 6 4 3.</_></rects>
      <tilted>0</tilted></_>
    <_>
      <rects>
        <_>
          8 4 5 2 -1.</_>
        <_>
          8 5 5 1 2.</_></rects>
      <tilted>0</tilted></_>
    <_>
      <rects>
        <_>
          8 5 3 1 -1.</_>
        <_>
          9 5 1 1 3.</_></rects>
      <tilted>0</tilted></_>
    <_>
      <rects>
        <_>
          8 5 4 10 -1.</_>
        <_>
          8 5 2 5 2.</_>
        <_>
          10 10 2 5 2.</_></rects>
      <tilted>0</tilted></_>
    <_>
      <rects>
        <_>
          8 6 4 8 -1.</_>
        <_>
          8 6 2 4 2.</_>
        <_>
          10 10 2 4 2.</_></rects>
      <tilted>0</tilted></_>
    <_>
      <rects>
        <_>
          8 7 3 2 -1.</_>
        <_>
          9 7 1 2 3.</_></rects>
      <tilted>0</tilted></_>
    <_>
      <rects>
        <_>
          8 7 6 4 -1.</_>
        <_>
          8 7 3 2 2.</_>
        <_>
          11 9 3 2 2.</_></rects>
      <tilted>0</tilted></_>
    <_>
      <rects>
        <_>
          8 9 3 1 -1.</_>
        <_>
          9 9 1 1 3.</_></rects>
      <tilted>0</tilted></_>
    <_>
      <rects>
        <_>
          8 9 4 3 -1.</_>
        <_>
          8 10 4 1 3.</_></rects>
      <tilted>0</tilted></_>
    <_>
      <rects>
        <_>
          8 10 2 4 -1.</_>
        <_>
          9 10 1 4 2.</_></rects>
      <tilted>0</tilted></_>
    <_>
      <rects>
        <_>
          8 11 6 2 -1.</_>
        <_>
          10 11 2 2 3.</_></rects>
      <tilted>0</tilted></_>
    <_>
      <rects>
        <_>
          8 12 3 2 -1.</_>
        <_>
          9 12 1 2 3.</_></rects>
      <tilted>0</tilted></_>
    <_>
      <rects>
        <_>
          8 12 6 1 -1.</_>
        <_>
          10 12 2 1 3.</_></rects>
      <tilted>0</tilted></_>
    <_>
      <rects>
        <_>
          8 13 9 3 -1.</_>
        <_>
          11 13 3 3 3.</_></rects>
      <tilted>0</tilted></_>
    <_>
      <rects>
        <_>
          8 13 12 6 -1.</_>
        <_>
          8 13 6 3 2.</_>
        <_>
          14 16 6 3 2.</_></rects>
      <tilted>0</tilted></_>
    <_>
      <rects>
        <_>
          8 14 5 4 -1.</_>
        <_>
          8 16 5 2 2.</_></rects>
      <tilted>0</tilted></_>
    <_>
      <rects>
        <_>
          9 4 3 2 -1.</_>
        <_>
          10 4 1 2 3.</_></rects>
      <tilted>0</tilted></_>
    <_>
      <rects>
        <_>
          9 4 2 12 -1.</_>
        <_>
          9 4 1 6 2.</_>
        <_>
          10 10 1 6 2.</_></rects>
      <tilted>0</tilted></_>
    <_>
      <rects>
        <_>
          9 4 2 6 -1.</_>
        <_>
          9 6 2 2 3.</_></rects>
      <tilted>0</tilted></_>
    <_>
      <rects>
        <_>
          9 4 3 4 -1.</_>
        <_>
          9 6 3 2 2.</_></rects>
      <tilted>0</tilted></_>
    <_>
      <rects>
        <_>
          9 4 3 6 -1.</_>
        <_>
          9 7 3 3 2.</_></rects>
      <tilted>0</tilted></_>
    <_>
      <rects>
        <_>
          9 4 3 9 -1.</_>
        <_>
          9 7 3 3 3.</_></rects>
      <tilted>0</tilted></_>
    <_>
      <rects>
        <_>
          9 4 3 10 -1.</_>
        <_>
          9 9 3 5 2.</_></rects>
      <tilted>0</tilted></_>
    <_>
      <rects>
        <_>
          9 5 2 2 -1.</_>
        <_>
          9 6 2 1 2.</_></rects>
      <tilted>0</tilted></_>
    <_>
      <rects>
        <_>
          9 5 2 3 -1.</_>
        <_>
          9 6 2 1 3.</_></rects>
      <tilted>0</tilted></_>
    <_>
      <rects>
        <_>
          9 5 3 2 -1.</_>
        <_>
          9 6 3 1 2.</_></rects>
      <tilted>0</tilted></_>
    <_>
      <rects>
        <_>
          9 5 3 8 -1.</_>
        <_>
          9 9 3 4 2.</_></rects>
      <tilted>0</tilted></_>
    <_>
      <rects>
        <_>
          9 5 4 6 -1.</_>
        <_>
          9 8 4 3 2.</_></rects>
      <tilted>0</tilted></_>
    <_>
      <rects>
        <_>
          9 5 5 12 -1.</_>
        <_>
          9 11 5 6 2.</_></rects>
      <tilted>0</tilted></_>
    <_>
      <rects>
        <_>
          9 6 3 8 -1.</_>
        <_>
          9 10 3 4 2.</_></rects>
      <tilted>0</tilted></_>
    <_>
      <rects>
        <_>
          9 7 1 2 -1.</_>
        <_>
          9 8 1 1 2.</_></rects>
      <tilted>0</tilted></_>
    <_>
      <rects>
        <_>
          9 7 3 3 -1.</_>
        <_>
          9 8 3 1 3.</_></rects>
      <tilted>0</tilted></_>
    <_>
      <rects>
        <_>
          9 7 3 6 -1.</_>
        <_>
          9 9 3 2 3.</_></rects>
      <tilted>0</tilted></_>
    <_>
      <rects>
        <_>
          9 8 1 4 -1.</_>
        <_>
          9 10 1 2 2.</_></rects>
      <tilted>0</tilted></_>
    <_>
      <rects>
        <_>
          9 8 3 3 -1.</_>
        <_>
          9 9 3 1 3.</_></rects>
      <tilted>0</tilted></_>
    <_>
      <rects>
        <_>
          9 8 3 6 -1.</_>
        <_>
          9 11 3 3 2.</_></rects>
      <tilted>0</tilted></_>
    <_>
      <rects>
        <_>
          9 9 1 4 -1.</_>
        <_>
          9 11 1 2 2.</_></rects>
      <tilted>0</tilted></_>
    <_>
      <rects>
        <_>
          9 9 3 2 -1.</_>
        <_>
          10 9 1 2 3.</_></rects>
      <tilted>0</tilted></_>
    <_>
      <rects>
        <_>
          9 9 4 4 -1.</_>
        <_>
          9 9 2 2 2.</_>
        <_>
          11 11 2 2 2.</_></rects>
      <tilted>0</tilted></_>
    <_>
      <rects>
        <_>
          9 10 2 1 -1.</_>
        <_>
          10 10 1 1 2.</_></rects>
      <tilted>0</tilted></_>
    <_>
      <rects>
        <_>
          9 10 1 2 -1.</_>
        <_>
          9 11 1 1 2.</_></rects>
      <tilted>0</tilted></_>
    <_>
      <rects>
        <_>
          9 10 1 3 -1.</_>
        <_>
          9 11 1 1 3.</_></rects>
      <tilted>0</tilted></_>
    <_>
      <rects>
        <_>
          9 10 1 4 -1.</_>
        <_>
          9 12 1 2 2.</_></rects>
      <tilted>0</tilted></_>
    <_>
      <rects>
        <_>
          9 10 2 3 -1.</_>
        <_>
          10 10 1 3 2.</_></rects>
      <tilted>0</tilted></_>
    <_>
      <rects>
        <_>
          9 10 1 10 -1.</_>
        <_>
          9 15 1 5 2.</_></rects>
      <tilted>0</tilted></_>
    <_>
      <rects>
        <_>
          9 10 3 2 -1.</_>
        <_>
          9 11 3 1 2.</_></rects>
      <tilted>0</tilted></_>
    <_>
      <rects>
        <_>
          9 10 4 9 -1.</_>
        <_>
          9 13 4 3 3.</_></rects>
      <tilted>0</tilted></_>
    <_>
      <rects>
        <_>
          9 11 1 2 -1.</_>
        <_>
          9 12 1 1 2.</_></rects>
      <tilted>0</tilted></_>
    <_>
      <rects>
        <_>
          9 11 1 3 -1.</_>
        <_>
          9 12 1 1 3.</_></rects>
      <tilted>0</tilted></_>
    <_>
      <rects>
        <_>
          9 11 1 4 -1.</_>
        <_>
          9 13 1 2 2.</_></rects>
      <tilted>0</tilted></_>
    <_>
      <rects>
        <_>
          9 11 6 1 -1.</_>
        <_>
          11 11 2 1 3.</_></rects>
      <tilted>0</tilted></_>
    <_>
      <rects>
        <_>
          9 12 2 1 -1.</_>
        <_>
          10 12 1 1 2.</_></rects>
      <tilted>0</tilted></_>
    <_>
      <rects>
        <_>
          9 12 1 2 -1.</_>
        <_>
          9 13 1 1 2.</_></rects>
      <tilted>0</tilted></_>
    <_>
      <rects>
        <_>
          9 12 2 2 -1.</_>
        <_>
          10 12 1 2 2.</_></rects>
      <tilted>0</tilted></_>
    <_>
      <rects>
        <_>
          9 12 2 2 -1.</_>
        <_>
          9 13 2 1 2.</_></rects>
      <tilted>0</tilted></_>
    <_>
      <rects>
        <_>
          9 12 6 1 -1.</_>
        <_>
          11 12 2 1 3.</_></rects>
      <tilted>0</tilted></_>
    <_>
      <rects>
        <_>
          9 13 2 1 -1.</_>
        <_>
          10 13 1 1 2.</_></rects>
      <tilted>0</tilted></_>
    <_>
      <rects>
        <_>
          9 13 3 1 -1.</_>
        <_>
          10 13 1 1 3.</_></rects>
      <tilted>0</tilted></_>
    <_>
      <rects>
        <_>
          9 13 2 2 -1.</_>
        <_>
          10 13 1 2 2.</_></rects>
      <tilted>0</tilted></_>
    <_>
      <rects>
        <_>
          9 13 2 2 -1.</_>
        <_>
          9 14 2 1 2.</_></rects>
      <tilted>0</tilted></_>
    <_>
      <rects>
        <_>
          9 13 4 2 -1.</_>
        <_>
          11 13 2 2 2.</_></rects>
      <tilted>0</tilted></_>
    <_>
      <rects>
        <_>
          9 13 3 3 -1.</_>
        <_>
          9 14 3 1 3.</_></rects>
      <tilted>0</tilted></_>
    <_>
      <rects>
        <_>
          9 13 4 2 -1.</_>
        <_>
          9 14 4 1 2.</_></rects>
      <tilted>0</tilted></_>
    <_>
      <rects>
        <_>
          9 14 3 5 -1.</_>
        <_>
          10 14 1 5 3.</_></rects>
      <tilted>0</tilted></_>
    <_>
      <rects>
        <_>
          10 2 1 16 -1.</_>
        <_>
          10 10 1 8 2.</_></rects>
      <tilted>0</tilted></_>
    <_>
      <rects>
        <_>
          10 3 1 2 -1.</_>
        <_>
          10 4 1 1 2.</_></rects>
      <tilted>0</tilted></_>
    <_>
      <rects>
        <_>
          10 4 3 3 -1.</_>
        <_>
          11 4 1 3 3.</_></rects>
      <tilted>0</tilted></_>
    <_>
      <rects>
        <_>
          10 4 2 13 -1.</_>
        <_>
          11 4 1 13 2.</_></rects>
      <tilted>0</tilted></_>
    <_>
      <rects>
        <_>
          10 4 2 2 -1.</_>
        <_>
          10 5 2 1 2.</_></rects>
      <tilted>0</tilted></_>
    <_>
      <rects>
        <_>
          10 4 5 3 -1.</_>
        <_>
          10 5 5 1 3.</_></rects>
      <tilted>0</tilted></_>
    <_>
      <rects>
        <_>
          10 6 2 12 -1.</_>
        <_>
          10 12 2 6 2.</_></rects>
      <tilted>0</tilted></_>
    <_>
      <rects>
        <_>
          10 7 2 2 -1.</_>
        <_>
          10 7 1 1 2.</_>
        <_>
          11 8 1 1 2.</_></rects>
      <tilted>0</tilted></_>
    <_>
      <rects>
        <_>
          10 7 1 8 -1.</_>
        <_>
          10 11 1 4 2.</_></rects>
      <tilted>0</tilted></_>
    <_>
      <rects>
        <_>
          10 8 1 6 -1.</_>
        <_>
          10 11 1 3 2.</_></rects>
      <tilted>0</tilted></_>
    <_>
      <rects>
        <_>
          10 8 2 5 -1.</_>
        <_>
          11 8 1 5 2.</_></rects>
      <tilted>0</tilted></_>
    <_>
      <rects>
        <_>
          10 8 4 6 -1.</_>
        <_>
          10 8 2 3 2.</_>
        <_>
          12 11 2 3 2.</_></rects>
      <tilted>0</tilted></_>
    <_>
      <rects>
        <_>
          10 9 2 2 -1.</_>
        <_>
          11 9 1 2 2.</_></rects>
      <tilted>0</tilted></_>
    <_>
      <rects>
        <_>
          10 9 1 4 -1.</_>
        <_>
          10 11 1 2 2.</_></rects>
      <tilted>0</tilted></_>
    <_>
      <rects>
        <_>
          10 9 2 4 -1.</_>
        <_>
          10 9 1 2 2.</_>
        <_>
          11 11 1 2 2.</_></rects>
      <tilted>0</tilted></_>
    <_>
      <rects>
        <_>
          10 9 2 4 -1.</_>
        <_>
          11 9 1 4 2.</_></rects>
      <tilted>0</tilted></_>
    <_>
      <rects>
        <_>
          10 9 2 4 -1.</_>
        <_>
          10 11 2 2 2.</_></rects>
      <tilted>0</tilted></_>
    <_>
      <rects>
        <_>
          10 9 4 4 -1.</_>
        <_>
          10 9 2 2 2.</_>
        <_>
          12 11 2 2 2.</_></rects>
      <tilted>0</tilted></_>
    <_>
      <rects>
        <_>
          10 11 1 2 -1.</_>
        <_>
          10 12 1 1 2.</_></rects>
      <tilted>0</tilted></_>
    <_>
      <rects>
        <_>
          10 12 2 1 -1.</_>
        <_>
          11 12 1 1 2.</_></rects>
      <tilted>0</tilted></_>
    <_>
      <rects>
        <_>
          10 12 1 2 -1.</_>
        <_>
          10 13 1 1 2.</_></rects>
      <tilted>0</tilted></_>
    <_>
      <rects>
        <_>
          10 12 3 1 -1.</_>
        <_>
          11 12 1 1 3.</_></rects>
      <tilted>0</tilted></_>
    <_>
      <rects>
        <_>
          10 12 1 3 -1.</_>
        <_>
          10 13 1 1 3.</_></rects>
      <tilted>0</tilted></_>
    <_>
      <rects>
        <_>
          10 12 2 2 -1.</_>
        <_>
          11 12 1 2 2.</_></rects>
      <tilted>0</tilted></_>
    <_>
      <rects>
        <_>
          10 12 1 6 -1.</_>
        <_>
          10 14 1 2 3.</_></rects>
      <tilted>0</tilted></_>
    <_>
      <rects>
        <_>
          10 12 2 3 -1.</_>
        <_>
          11 12 1 3 2.</_></rects>
      <tilted>0</tilted></_>
    <_>
      <rects>
        <_>
          10 12 1 8 -1.</_>
        <_>
          10 16 1 4 2.</_></rects>
      <tilted>0</tilted></_>
    <_>
      <rects>
        <_>
          10 12 2 2 -1.</_>
        <_>
          10 13 2 1 2.</_></rects>
      <tilted>0</tilted></_>
    <_>
      <rects>
        <_>
          10 12 2 4 -1.</_>
        <_>
          10 14 2 2 2.</_></rects>
      <tilted>0</tilted></_>
    <_>
      <rects>
        <_>
          10 13 2 1 -1.</_>
        <_>
          11 13 1 1 2.</_></rects>
      <tilted>0</tilted></_>
    <_>
      <rects>
        <_>
          10 13 1 2 -1.</_>
        <_>
          10 14 1 1 2.</_></rects>
      <tilted>0</tilted></_>
    <_>
      <rects>
        <_>
          10 13 1 3 -1.</_>
        <_>
          10 14 1 1 3.</_></rects>
      <tilted>0</tilted></_>
    <_>
      <rects>
        <_>
          10 13 4 4 -1.</_>
        <_>
          10 13 2 2 2.</_>
        <_>
          12 15 2 2 2.</_></rects>
      <tilted>0</tilted></_>
    <_>
      <rects>
        <_>
          10 13 6 1 -1.</_>
        <_>
          13 13 3 1 2.</_></rects>
      <tilted>0</tilted></_>
    <_>
      <rects>
        <_>
          11 5 1 3 -1.</_>
        <_>
          11 6 1 1 3.</_></rects>
      <tilted>0</tilted></_>
    <_>
      <rects>
        <_>
          11 7 1 2 -1.</_>
        <_>
          11 8 1 1 2.</_></rects>
      <tilted>0</tilted></_>
    <_>
      <rects>
        <_>
          11 7 1 6 -1.</_>
        <_>
          11 9 1 2 3.</_></rects>
      <tilted>0</tilted></_>
    <_>
      <rects>
        <_>
          11 8 1 2 -1.</_>
        <_>
          11 9 1 1 2.</_></rects>
      <tilted>0</tilted></_>
    <_>
      <rects>
        <_>
          11 8 2 3 -1.</_>
        <_>
          12 8 1 3 2.</_></rects>
      <tilted>0</tilted></_>
    <_>
      <rects>
        <_>
          11 9 2 2 -1.</_>
        <_>
          11 9 1 1 2.</_>
        <_>
          12 10 1 1 2.</_></rects>
      <tilted>0</tilted></_>
    <_>
      <rects>
        <_>
          11 9 1 4 -1.</_>
        <_>
          11 11 1 2 2.</_></rects>
      <tilted>0</tilted></_>
    <_>
      <rects>
        <_>
          11 9 3 4 -1.</_>
        <_>
          11 11 3 2 2.</_></rects>
      <tilted>0</tilted></_>
    <_>
      <rects>
        <_>
          11 9 7 3 -1.</_>
        <_>
          11 10 7 1 3.</_></rects>
      <tilted>0</tilted></_>
    <_>
      <rects>
        <_>
          11 10 1 4 -1.</_>
        <_>
          11 12 1 2 2.</_></rects>
      <tilted>0</tilted></_>
    <_>
      <rects>
        <_>
          11 12 1 2 -1.</_>
        <_>
          11 13 1 1 2.</_></rects>
      <tilted>0</tilted></_>
    <_>
      <rects>
        <_>
          11 12 2 2 -1.</_>
        <_>
          11 12 1 1 2.</_>
        <_>
          12 13 1 1 2.</_></rects>
      <tilted>0</tilted></_>
    <_>
      <rects>
        <_>
          11 12 1 8 -1.</_>
        <_>
          11 16 1 4 2.</_></rects>
      <tilted>0</tilted></_>
    <_>
      <rects>
        <_>
          11 12 4 4 -1.</_>
        <_>
          11 12 2 2 2.</_>
        <_>
          13 14 2 2 2.</_></rects>
      <tilted>0</tilted></_>
    <_>
      <rects>
        <_>
          11 13 1 2 -1.</_>
        <_>
          11 14 1 1 2.</_></rects>
      <tilted>0</tilted></_>
    <_>
      <rects>
        <_>
          11 13 2 2 -1.</_>
        <_>
          11 14 2 1 2.</_></rects>
      <tilted>0</tilted></_>
    <_>
      <rects>
        <_>
          11 14 2 1 -1.</_>
        <_>
          12 14 1 1 2.</_></rects>
      <tilted>0</tilted></_>
    <_>
      <rects>
        <_>
          11 14 2 2 -1.</_>
        <_>
          11 15 2 1 2.</_></rects>
      <tilted>0</tilted></_>
    <_>
      <rects>
        <_>
          12 3 1 2 -1.</_>
        <_>
          12 4 1 1 2.</_></rects>
      <tilted>0</tilted></_>
    <_>
      <rects>
        <_>
          12 6 2 1 -1.</_>
        <_>
          13 6 1 1 2.</_></rects>
      <tilted>0</tilted></_>
    <_>
      <rects>
        <_>
          12 6 2 2 -1.</_>
        <_>
          12 6 1 1 2.</_>
        <_>
          13 7 1 1 2.</_></rects>
      <tilted>0</tilted></_>
    <_>
      <rects>
        <_>
          12 7 2 2 -1.</_>
        <_>
          13 7 1 2 2.</_></rects>
      <tilted>0</tilted></_>
    <_>
      <rects>
        <_>
          12 7 1 4 -1.</_>
        <_>
          12 9 1 2 2.</_></rects>
      <tilted>0</tilted></_>
    <_>
      <rects>
        <_>
          12 9 1 2 -1.</_>
        <_>
          12 10 1 1 2.</_></rects>
      <tilted>0</tilted></_>
    <_>
      <rects>
        <_>
          12 11 3 4 -1.</_>
        <_>
          13 11 1 4 3.</_></rects>
      <tilted>0</tilted></_>
    <_>
      <rects>
        <_>
          12 12 3 1 -1.</_>
        <_>
          13 12 1 1 3.</_></rects>
      <tilted>0</tilted></_>
    <_>
      <rects>
        <_>
          12 13 3 1 -1.</_>
        <_>
          13 13 1 1 3.</_></rects>
      <tilted>0</tilted></_>
    <_>
      <rects>
        <_>
          12 15 1 4 -1.</_>
        <_>
          12 17 1 2 2.</_></rects>
      <tilted>0</tilted></_>
    <_>
      <rects>
        <_>
          13 7 2 3 -1.</_>
        <_>
          13 8 2 1 3.</_></rects>
      <tilted>0</tilted></_>
    <_>
      <rects>
        <_>
          13 8 2 2 -1.</_>
        <_>
          13 9 2 1 2.</_></rects>
      <tilted>0</tilted></_>
    <_>
      <rects>
        <_>
          13 12 2 1 -1.</_>
        <_>
          14 12 1 1 2.</_></rects>
      <tilted>0</tilted></_>
    <_>
      <rects>
        <_>
          14 10 2 2 -1.</_>
        <_>
          14 10 1 1 2.</_>
        <_>
          15 11 1 1 2.</_></rects>
      <tilted>0</tilted></_>
    <_>
      <rects>
        <_>
          14 12 3 2 -1.</_>
        <_>
          15 12 1 2 3.</_></rects>
      <tilted>0</tilted></_>
    <_>
      <rects>
        <_>
          15 11 1 2 -1.</_>
        <_>
          15 12 1 1 2.</_></rects>
      <tilted>0</tilted></_></features></cascade>
</opencv_storage>
