<?xml version="1.0"?>
<opencv_storage>
<cascade>
  <stageType>BOOST</stageType>
  <featureType>HAAR</featureType>
  <height>20</height>
  <width>20</width>
  <stageParams>
    <boostType>GAB</boostType>
    <minHitRate>9.9500000476837158e-01</minHitRate>
    <maxFalseAlarm>5.0000000000000000e-01</maxFalseAlarm>
    <weightTrimRate>9.4999999999999996e-01</weightTrimRate>
    <maxDepth>1</maxDepth>
    <maxWeakCount>100</maxWeakCount></stageParams>
  <featureParams>
    <maxCatCount>0</maxCatCount>
    <featSize>1</featSize>
    <mode>BASIC</mode></featureParams>
  <stageNum>14</stageNum>
  <stages>
    <!-- stage 0 -->
    <_>
      <maxWeakCount>4</maxWeakCount>
      <stageThreshold>-9.7980678081512451e-01</stageThreshold>
      <weakClassifiers>
        <_>
          <internalNodes>
            0 -1 28 -2.2751804441213608e-02</internalNodes>
          <leafValues>
            7.9867821931838989e-01 -9.1541612148284912e-01</leafValues></_>
        <_>
          <internalNodes>
            0 -1 63 -1.1065943166613579e-02</internalNodes>
          <leafValues>
            5.9087818861007690e-01 -7.9897785186767578e-01</leafValues></_>
        <_>
          <internalNodes>
            0 -1 21 -3.9326371625065804e-03</internalNodes>
          <leafValues>
            4.2078348994255066e-01 -9.3482947349548340e-01</leafValues></_>
        <_>
          <internalNodes>
            0 -1 37 -4.0617808699607849e-03</internalNodes>
          <leafValues>
            -9.1384088993072510e-01 3.1380364298820496e-01</leafValues></_></weakClassifiers></_>
    <!-- stage 1 -->
    <_>
      <maxWeakCount>3</maxWeakCount>
      <stageThreshold>-8.6075603961944580e-01</stageThreshold>
      <weakClassifiers>
        <_>
          <internalNodes>
            0 -1 20 -1.5357697382569313e-02</internalNodes>
          <leafValues>
            6.7274427413940430e-01 -9.6078431606292725e-01</leafValues></_>
        <_>
          <internalNodes>
            0 -1 54 2.2892843931913376e-02</internalNodes>
          <leafValues>
            -8.8303840160369873e-01 4.7889557480812073e-01</leafValues></_>
        <_>
          <internalNodes>
            0 -1 34 1.3206128031015396e-02</internalNodes>
          <leafValues>
            -6.5046185255050659e-01 5.5157220363616943e-01</leafValues></_></weakClassifiers></_>
    <!-- stage 2 -->
    <_>
      <maxWeakCount>3</maxWeakCount>
      <stageThreshold>-1.4418017864227295e-01</stageThreshold>
      <weakClassifiers>
        <_>
          <internalNodes>
            0 -1 56 1.3679257594048977e-02</internalNodes>
          <leafValues>
            -9.0619766712188721e-01 6.8521159887313843e-01</leafValues></_>
        <_>
          <internalNodes>
            0 -1 3 2.6279790326952934e-03</internalNodes>
          <leafValues>
            -7.7430695295333862e-01 4.5994266867637634e-01</leafValues></_>
        <_>
          <internalNodes>
            0 -1 15 1.2268409132957458e-02</internalNodes>
          <leafValues>
            3.0207481980323792e-01 -9.8207867145538330e-01</leafValues></_></weakClassifiers></_>
    <!-- stage 3 -->
    <_>
      <maxWeakCount>5</maxWeakCount>
      <stageThreshold>-5.5695682764053345e-01</stageThreshold>
      <weakClassifiers>
        <_>
          <internalNodes>
            0 -1 35 -5.6886612437665462e-03</internalNodes>
          <leafValues>
            -8.5028791427612305e-01 6.1633777618408203e-01</leafValues></_>
        <_>
          <internalNodes>
            0 -1 55 7.7571929432451725e-04</internalNodes>
          <leafValues>
            3.9378926157951355e-01 -9.2746931314468384e-01</leafValues></_>
        <_>
          <internalNodes>
            0 -1 40 2.8636585921049118e-03</internalNodes>
          <leafValues>
            -6.5047246217727661e-01 4.4885790348052979e-01</leafValues></_>
        <_>
          <internalNodes>
            0 -1 36 -1.9948924891650677e-03</internalNodes>
          <leafValues>
            -9.6513634920120239e-01 2.5663226842880249e-01</leafValues></_>
        <_>
          <internalNodes>
            0 -1 9 1.7165484314318746e-04</internalNodes>
          <leafValues>
            4.1582021117210388e-01 -8.4618377685546875e-01</leafValues></_></weakClassifiers></_>
    <!-- stage 4 -->
    <_>
      <maxWeakCount>4</maxWeakCount>
      <stageThreshold>-9.0461593866348267e-01</stageThreshold>
      <weakClassifiers>
        <_>
          <internalNodes>
            0 -1 32 -1.4476469950750470e-03</internalNodes>
          <leafValues>
            -9.4230771064758301e-01 5.6567424535751343e-01</leafValues></_>
        <_>
          <internalNodes>
            0 -1 4 -2.5834266562014818e-03</internalNodes>
          <leafValues>
            -8.1130468845367432e-01 4.2224517464637756e-01</leafValues></_>
        <_>
          <internalNodes>
            0 -1 53 3.1505851075053215e-04</internalNodes>
          <leafValues>
            3.1398949027061462e-01 -8.7458819150924683e-01</leafValues></_>
        <_>
          <internalNodes>
            0 -1 46 1.7032679170370102e-04</internalNodes>
          <leafValues>
            2.1560268104076385e-01 -9.7614711523056030e-01</leafValues></_></weakClassifiers></_>
    <!-- stage 5 -->
    <_>
      <maxWeakCount>3</maxWeakCount>
      <stageThreshold>2.2459723055362701e-02</stageThreshold>
      <weakClassifiers>
        <_>
          <internalNodes>
            0 -1 46 -8.1938493531197309e-04</internalNodes>
          <leafValues>
            -7.4017095565795898e-01 6.3026005029678345e-01</leafValues></_>
        <_>
          <internalNodes>
            0 -1 62 -1.0869279503822327e-02</internalNodes>
          <leafValues>
            4.1763257980346680e-01 -8.0891287326812744e-01</leafValues></_>
        <_>
          <internalNodes>
            0 -1 12 8.5450988262891769e-03</internalNodes>
          <leafValues>
            3.4499809145927429e-01 -9.4609606266021729e-01</leafValues></_></weakClassifiers></_>
    <!-- stage 6 -->
    <_>
      <maxWeakCount>4</maxWeakCount>
      <stageThreshold>-8.3411538600921631e-01</stageThreshold>
      <weakClassifiers>
        <_>
          <internalNodes>
            0 -1 13 -6.5048754215240479e-02</internalNodes>
          <leafValues>
            -9.0021693706512451e-01 5.8731573820114136e-01</leafValues></_>
        <_>
          <internalNodes>
            0 -1 26 4.0760608389973640e-03</internalNodes>
          <leafValues>
            -8.3432376384735107e-01 3.4978660941123962e-01</leafValues></_>
        <_>
          <internalNodes>
            0 -1 16 -4.5117088593542576e-03</internalNodes>
          <leafValues>
            -8.3739548921585083e-01 3.1684747338294983e-01</leafValues></_>
        <_>
          <internalNodes>
            0 -1 29 7.1791806258261204e-03</internalNodes>
          <leafValues>
            2.5028809905052185e-01 -9.6373754739761353e-01</leafValues></_></weakClassifiers></_>
    <!-- stage 7 -->
    <_>
      <maxWeakCount>6</maxWeakCount>
      <stageThreshold>-9.2566984891891479e-01</stageThreshold>
      <weakClassifiers>
        <_>
          <internalNodes>
            0 -1 8 -7.9078534618020058e-03</internalNodes>
          <leafValues>
            -8.9242053031921387e-01 5.5216062068939209e-01</leafValues></_>
        <_>
          <internalNodes>
            0 -1 45 -1.5585693763568997e-03</internalNodes>
          <leafValues>
            4.1890016198158264e-01 -6.3943237066268921e-01</leafValues></_>
        <_>
          <internalNodes>
            0 -1 17 1.5186986420303583e-03</internalNodes>
          <leafValues>
            3.1198403239250183e-01 -8.4925198554992676e-01</leafValues></_>
        <_>
          <internalNodes>
            0 -1 10 -8.4768664091825485e-03</internalNodes>
          <leafValues>
            -9.1438275575637817e-01 2.1987858414649963e-01</leafValues></_>
        <_>
          <internalNodes>
            0 -1 0 4.6630660071969032e-03</internalNodes>
          <leafValues>
            -4.4003993272781372e-01 5.5058711767196655e-01</leafValues></_>
        <_>
          <internalNodes>
            0 -1 39 4.5054382644593716e-04</internalNodes>
          <leafValues>
            2.3101520538330078e-01 -9.6286594867706299e-01</leafValues></_></weakClassifiers></_>
    <!-- stage 8 -->
    <_>
      <maxWeakCount>7</maxWeakCount>
      <stageThreshold>-7.5064432621002197e-01</stageThreshold>
      <weakClassifiers>
        <_>
          <internalNodes>
            0 -1 14 1.3898488134145737e-02</internalNodes>
          <leafValues>
            5.5166375637054443e-01 -8.6538463830947876e-01</leafValues></_>
        <_>
          <internalNodes>
            0 -1 50 1.0196252260357141e-03</internalNodes>
          <leafValues>
            -6.3210803270339966e-01 3.9648166298866272e-01</leafValues></_>
        <_>
          <internalNodes>
            0 -1 57 3.0913944356143475e-03</internalNodes>
          <leafValues>
            -6.9011026620864868e-01 3.7506875395774841e-01</leafValues></_>
        <_>
          <internalNodes>
            0 -1 6 1.5467825578525662e-03</internalNodes>
          <leafValues>
            2.3415042459964752e-01 -9.3082135915756226e-01</leafValues></_>
        <_>
          <internalNodes>
            0 -1 49 -2.3692481219768524e-02</internalNodes>
          <leafValues>
            7.2383636236190796e-01 -3.7681838870048523e-01</leafValues></_>
        <_>
          <internalNodes>
            0 -1 59 3.3722256193868816e-04</internalNodes>
          <leafValues>
            3.0854222178459167e-01 -8.9114028215408325e-01</leafValues></_>
        <_>
          <internalNodes>
            0 -1 19 -6.0080457478761673e-03</internalNodes>
          <leafValues>
            -9.1444963216781616e-01 2.0590533316135406e-01</leafValues></_></weakClassifiers></_>
    <!-- stage 9 -->
    <_>
      <maxWeakCount>6</maxWeakCount>
      <stageThreshold>-2.7831786870956421e-01</stageThreshold>
      <weakClassifiers>
        <_>
          <internalNodes>
            0 -1 24 -8.6765689775347710e-04</internalNodes>
          <leafValues>
            5.2915954589843750e-01 -9.0760868787765503e-01</leafValues></_>
        <_>
          <internalNodes>
            0 -1 23 -1.1041970923542976e-02</internalNodes>
          <leafValues>
            -8.1535595655441284e-01 3.4904351830482483e-01</leafValues></_>
        <_>
          <internalNodes>
            0 -1 30 -8.0920476466417313e-03</internalNodes>
          <leafValues>
            2.0830297470092773e-01 -9.3039286136627197e-01</leafValues></_>
        <_>
          <internalNodes>
            0 -1 25 9.4385622069239616e-03</internalNodes>
          <leafValues>
            -3.7135663628578186e-01 6.5608805418014526e-01</leafValues></_>
        <_>
          <internalNodes>
            0 -1 41 -4.8538122326135635e-02</internalNodes>
          <leafValues>
            -9.4101262092590332e-01 2.5391566753387451e-01</leafValues></_>
        <_>
          <internalNodes>
            0 -1 31 -2.0251123351044953e-04</internalNodes>
          <leafValues>
            1.9160938262939453e-01 -8.3805942535400391e-01</leafValues></_></weakClassifiers></_>
    <!-- stage 10 -->
    <_>
      <maxWeakCount>6</maxWeakCount>
      <stageThreshold>-5.1122814416885376e-01</stageThreshold>
      <weakClassifiers>
        <_>
          <internalNodes>
            0 -1 53 3.6021578125655651e-04</internalNodes>
          <leafValues>
            5.5496686697006226e-01 -8.2068967819213867e-01</leafValues></_>
        <_>
          <internalNodes>
            0 -1 7 -1.3162132818251848e-03</internalNodes>
          <leafValues>
            3.1287258863449097e-01 -8.1587421894073486e-01</leafValues></_>
        <_>
          <internalNodes>
            0 -1 18 2.0643388852477074e-03</internalNodes>
          <leafValues>
            2.9569822549819946e-01 -8.2227802276611328e-01</leafValues></_>
        <_>
          <internalNodes>
            0 -1 42 -5.0451760180294514e-03</internalNodes>
          <leafValues>
            3.2469117641448975e-01 -7.0095437765121460e-01</leafValues></_>
        <_>
          <internalNodes>
            0 -1 53 -3.2618964905850589e-04</internalNodes>
          <leafValues>
            -8.9516013860702515e-01 1.9141927361488342e-01</leafValues></_>
        <_>
          <internalNodes>
            0 -1 60 -1.4096898958086967e-03</internalNodes>
          <leafValues>
            2.1042582392692566e-01 -7.7078914642333984e-01</leafValues></_></weakClassifiers></_>
    <!-- stage 11 -->
    <_>
      <maxWeakCount>6</maxWeakCount>
      <stageThreshold>-5.2732127904891968e-01</stageThreshold>
      <weakClassifiers>
        <_>
          <internalNodes>
            0 -1 38 -7.4633583426475525e-03</internalNodes>
          <leafValues>
            -8.0952382087707520e-01 5.3150802850723267e-01</leafValues></_>
        <_>
          <internalNodes>
            0 -1 1 5.5676251649856567e-03</internalNodes>
          <leafValues>
            -8.4790068864822388e-01 2.9116794466972351e-01</leafValues></_>
        <_>
          <internalNodes>
            0 -1 61 -2.5191192980855703e-03</internalNodes>
          <leafValues>
            2.9965144395828247e-01 -7.0595967769622803e-01</leafValues></_>
        <_>
          <internalNodes>
            0 -1 44 -1.0269848862662911e-03</internalNodes>
          <leafValues>
            2.5996494293212891e-01 -7.9759055376052856e-01</leafValues></_>
        <_>
          <internalNodes>
            0 -1 47 -8.6751003982499242e-04</internalNodes>
          <leafValues>
            -9.0243744850158691e-01 1.9137762486934662e-01</leafValues></_>
        <_>
          <internalNodes>
            0 -1 51 3.2421259675174952e-04</internalNodes>
          <leafValues>
            2.4565169215202332e-01 -9.5248091220855713e-01</leafValues></_></weakClassifiers></_>
    <!-- stage 12 -->
    <_>
      <maxWeakCount>6</maxWeakCount>
      <stageThreshold>-8.3765590190887451e-01</stageThreshold>
      <weakClassifiers>
        <_>
          <internalNodes>
            0 -1 2 1.9759653136134148e-02</internalNodes>
          <leafValues>
            -8.2914572954177856e-01 5.3431797027587891e-01</leafValues></_>
        <_>
          <internalNodes>
            0 -1 33 -9.5005575567483902e-03</internalNodes>
          <leafValues>
            7.4954229593276978e-01 -2.8177362680435181e-01</leafValues></_>
        <_>
          <internalNodes>
            0 -1 11 -5.1832795143127441e-02</internalNodes>
          <leafValues>
            -9.0662652254104614e-01 2.5202608108520508e-01</leafValues></_>
        <_>
          <internalNodes>
            0 -1 58 -1.4652628451585770e-03</internalNodes>
          <leafValues>
            2.0686122775077820e-01 -8.2753163576126099e-01</leafValues></_>
        <_>
          <internalNodes>
            0 -1 48 1.4668921940028667e-03</internalNodes>
          <leafValues>
            -7.6720207929611206e-01 2.4540521204471588e-01</leafValues></_>
        <_>
          <internalNodes>
            0 -1 5 -1.2109971605241299e-02</internalNodes>
          <leafValues>
            -7.6009988784790039e-01 1.9839942455291748e-01</leafValues></_></weakClassifiers></_>
    <!-- stage 13 -->
    <_>
      <maxWeakCount>6</maxWeakCount>
      <stageThreshold>-2.4982960522174835e-01</stageThreshold>
      <weakClassifiers>
        <_>
          <internalNodes>
            0 -1 52 -5.5872404482215643e-04</internalNodes>
          <leafValues>
            -9.5611286163330078e-01 5.0608986616134644e-01</leafValues></_>
        <_>
          <internalNodes>
            0 -1 64 -7.0416079834103584e-03</internalNodes>
          <leafValues>
            4.9739772081375122e-01 -4.1424658894538879e-01</leafValues></_>
        <_>
          <internalNodes>
            0 -1 47 7.4080296326428652e-04</internalNodes>
          <leafValues>
            2.6403424143791199e-01 -8.7862783670425415e-01</leafValues></_>
        <_>
          <internalNodes>
            0 -1 43 -1.1496003717184067e-03</internalNodes>
          <leafValues>
            2.1019285917282104e-01 -7.0845699310302734e-01</leafValues></_>
        <_>
          <internalNodes>
            0 -1 22 -3.1128772534430027e-03</internalNodes>
          <leafValues>
            -8.0453532934188843e-01 2.2185711562633514e-01</leafValues></_>
        <_>
          <internalNodes>
            0 -1 27 5.9300293214619160e-03</internalNodes>
          <leafValues>
            2.1965308487415314e-01 -8.7499159574508667e-01</leafValues></_></weakClassifiers></_></stages>
  <features>
    <_>
      <rects>
        <_>
          1 9 2 3 -1.</_>
        <_>
          2 9 1 3 2.</_></rects>
      <tilted>0</tilted></_>
    <_>
      <rects>
        <_>
          2 6 4 8 -1.</_>
        <_>
          4 6 2 8 2.</_></rects>
      <tilted>0</tilted></_>
    <_>
      <rects>
        <_>
          2 7 9 6 -1.</_>
        <_>
          5 7 3 6 3.</_></rects>
      <tilted>0</tilted></_>
    <_>
      <rects>
        <_>
          2 12 4 2 -1.</_>
        <_>
          4 12 2 2 2.</_></rects>
      <tilted>0</tilted></_>
    <_>
      <rects>
        <_>
          3 4 14 12 -1.</_>
        <_>
          3 8 14 4 3.</_></rects>
      <tilted>0</tilted></_>
    <_>
      <rects>
        <_>
          3 6 15 1 -1.</_>
        <_>
          8 6 5 1 3.</_></rects>
      <tilted>0</tilted></_>
    <_>
      <rects>
        <_>
          3 7 14 6 -1.</_>
        <_>
          10 7 7 6 2.</_></rects>
      <tilted>0</tilted></_>
    <_>
      <rects>
        <_>
          3 9 6 6 -1.</_>
        <_>
          3 12 6 3 2.</_></rects>
      <tilted>0</tilted></_>
    <_>
      <rects>
        <_>
          3 9 13 6 -1.</_>
        <_>
          3 11 13 2 3.</_></rects>
      <tilted>0</tilted></_>
    <_>
      <rects>
        <_>
          3 11 8 4 -1.</_>
        <_>
          3 13 8 2 2.</_></rects>
      <tilted>0</tilted></_>
    <_>
      <rects>
        <_>
          3 13 14 1 -1.</_>
        <_>
          10 13 7 1 2.</_></rects>
      <tilted>0</tilted></_>
    <_>
      <rects>
        <_>
          4 4 8 12 -1.</_>
        <_>
          4 10 8 6 2.</_></rects>
      <tilted>0</tilted></_>
    <_>
      <rects>
        <_>
          4 6 12 10 -1.</_>
        <_>
          10 6 6 10 2.</_></rects>
      <tilted>0</tilted></_>
    <_>
      <rects>
        <_>
          4 6 14 9 -1.</_>
        <_>
          11 6 7 9 2.</_></rects>
      <tilted>0</tilted></_>
    <_>
      <rects>
        <_>
          4 6 12 9 -1.</_>
        <_>
          4 9 12 3 3.</_></rects>
      <tilted>0</tilted></_>
    <_>
      <rects>
        <_>
          4 7 13 8 -1.</_>
        <_>
          4 11 13 4 2.</_></rects>
      <tilted>0</tilted></_>
    <_>
      <rects>
        <_>
          4 10 11 6 -1.</_>
        <_>
          4 12 11 2 3.</_></rects>
      <tilted>0</tilted></_>
    <_>
      <rects>
        <_>
          4 13 14 1 -1.</_>
        <_>
          11 13 7 1 2.</_></rects>
      <tilted>0</tilted></_>
    <_>
      <rects>
        <_>
          4 13 14 2 -1.</_>
        <_>
          11 13 7 2 2.</_></rects>
      <tilted>0</tilted></_>
    <_>
      <rects>
        <_>
          4 14 12 1 -1.</_>
        <_>
          10 14 6 1 2.</_></rects>
      <tilted>0</tilted></_>
    <_>
      <rects>
        <_>
          5 8 6 5 -1.</_>
        <_>
          8 8 3 5 2.</_></rects>
      <tilted>0</tilted></_>
    <_>
      <rects>
        <_>
          5 10 4 3 -1.</_>
        <_>
          7 10 2 3 2.</_></rects>
      <tilted>0</tilted></_>
    <_>
      <rects>
        <_>
          5 10 8 6 -1.</_>
        <_>
          5 13 8 3 2.</_></rects>
      <tilted>0</tilted></_>
    <_>
      <rects>
        <_>
          5 11 9 1 -1.</_>
        <_>
          8 11 3 1 3.</_></rects>
      <tilted>0</tilted></_>
    <_>
      <rects>
        <_>
          5 12 4 1 -1.</_>
        <_>
          7 12 2 1 2.</_></rects>
      <tilted>0</tilted></_>
    <_>
      <rects>
        <_>
          6 1 9 2 -1.</_>
        <_>
          6 2 9 1 2.</_></rects>
      <tilted>0</tilted></_>
    <_>
      <rects>
        <_>
          6 4 2 9 -1.</_>
        <_>
          6 7 2 3 3.</_></rects>
      <tilted>0</tilted></_>
    <_>
      <rects>
        <_>
          6 6 8 10 -1.</_>
        <_>
          6 11 8 5 2.</_></rects>
      <tilted>0</tilted></_>
    <_>
      <rects>
        <_>
          6 8 9 4 -1.</_>
        <_>
          9 8 3 4 3.</_></rects>
      <tilted>0</tilted></_>
    <_>
      <rects>
        <_>
          6 10 7 6 -1.</_>
        <_>
          6 12 7 2 3.</_></rects>
      <tilted>0</tilted></_>
    <_>
      <rects>
        <_>
          6 11 9 2 -1.</_>
        <_>
          9 11 3 2 3.</_></rects>
      <tilted>0</tilted></_>
    <_>
      <rects>
        <_>
          6 11 10 4 -1.</_>
        <_>
          6 11 5 2 2.</_>
        <_>
          11 13 5 2 2.</_></rects>
      <tilted>0</tilted></_>
    <_>
      <rects>
        <_>
          6 11 7 4 -1.</_>
        <_>
          6 13 7 2 2.</_></rects>
      <tilted>0</tilted></_>
    <_>
      <rects>
        <_>
          6 18 7 2 -1.</_>
        <_>
          6 19 7 1 2.</_></rects>
      <tilted>0</tilted></_>
    <_>
      <rects>
        <_>
          7 4 7 6 -1.</_>
        <_>
          7 6 7 2 3.</_></rects>
      <tilted>0</tilted></_>
    <_>
      <rects>
        <_>
          7 9 8 6 -1.</_>
        <_>
          7 12 8 3 2.</_></rects>
      <tilted>0</tilted></_>
    <_>
      <rects>
        <_>
          7 10 7 6 -1.</_>
        <_>
          7 13 7 3 2.</_></rects>
      <tilted>0</tilted></_>
    <_>
      <rects>
        <_>
          7 11 6 1 -1.</_>
        <_>
          9 11 2 1 3.</_></rects>
      <tilted>0</tilted></_>
    <_>
      <rects>
        <_>
          7 11 6 2 -1.</_>
        <_>
          9 11 2 2 3.</_></rects>
      <tilted>0</tilted></_>
    <_>
      <rects>
        <_>
          7 13 6 1 -1.</_>
        <_>
          9 13 2 1 3.</_></rects>
      <tilted>0</tilted></_>
    <_>
      <rects>
        <_>
          8 5 4 3 -1.</_>
        <_>
          8 6 4 1 3.</_></rects>
      <tilted>0</tilted></_>
    <_>
      <rects>
        <_>
          8 5 10 10 -1.</_>
        <_>
          8 10 10 5 2.</_></rects>
      <tilted>0</tilted></_>
    <_>
      <rects>
        <_>
          8 6 4 4 -1.</_>
        <_>
          8 8 4 2 2.</_></rects>
      <tilted>0</tilted></_>
    <_>
      <rects>
        <_>
          8 7 2 4 -1.</_>
        <_>
          9 7 1 4 2.</_></rects>
      <tilted>0</tilted></_>
    <_>
      <rects>
        <_>
          8 7 2 6 -1.</_>
        <_>
          9 7 1 6 2.</_></rects>
      <tilted>0</tilted></_>
    <_>
      <rects>
        <_>
          8 7 4 2 -1.</_>
        <_>
          8 8 4 1 2.</_></rects>
      <tilted>0</tilted></_>
    <_>
      <rects>
        <_>
          8 11 2 2 -1.</_>
        <_>
          9 11 1 2 2.</_></rects>
      <tilted>0</tilted></_>
    <_>
      <rects>
        <_>
          8 12 4 1 -1.</_>
        <_>
          10 12 2 1 2.</_></rects>
      <tilted>0</tilted></_>
    <_>
      <rects>
        <_>
          8 13 8 1 -1.</_>
        <_>
          12 13 4 1 2.</_></rects>
      <tilted>0</tilted></_>
    <_>
      <rects>
        <_>
          8 16 7 4 -1.</_>
        <_>
          8 18 7 2 2.</_></rects>
      <tilted>0</tilted></_>
    <_>
      <rects>
        <_>
          9 8 3 6 -1.</_>
        <_>
          9 11 3 3 2.</_></rects>
      <tilted>0</tilted></_>
    <_>
      <rects>
        <_>
          9 11 2 2 -1.</_>
        <_>
          10 11 1 2 2.</_></rects>
      <tilted>0</tilted></_>
    <_>
      <rects>
        <_>
          9 12 4 1 -1.</_>
        <_>
          11 12 2 1 2.</_></rects>
      <tilted>0</tilted></_>
    <_>
      <rects>
        <_>
          9 12 2 2 -1.</_>
        <_>
          9 13 2 1 2.</_></rects>
      <tilted>0</tilted></_>
    <_>
      <rects>
        <_>
          10 9 9 4 -1.</_>
        <_>
          13 9 3 4 3.</_></rects>
      <tilted>0</tilted></_>
    <_>
      <rects>
        <_>
          10 11 7 4 -1.</_>
        <_>
          10 13 7 2 2.</_></rects>
      <tilted>0</tilted></_>
    <_>
      <rects>
        <_>
          11 7 6 6 -1.</_>
        <_>
          13 7 2 6 3.</_></rects>
      <tilted>0</tilted></_>
    <_>
      <rects>
        <_>
          12 4 2 9 -1.</_>
        <_>
          12 7 2 3 3.</_></rects>
      <tilted>0</tilted></_>
    <_>
      <rects>
        <_>
          12 7 5 8 -1.</_>
        <_>
          12 11 5 4 2.</_></rects>
      <tilted>0</tilted></_>
    <_>
      <rects>
        <_>
          12 10 5 4 -1.</_>
        <_>
          12 12 5 2 2.</_></rects>
      <tilted>0</tilted></_>
    <_>
      <rects>
        <_>
          13 7 4 2 -1.</_>
        <_>
          15 7 2 2 2.</_></rects>
      <tilted>0</tilted></_>
    <_>
      <rects>
        <_>
          13 13 6 1 -1.</_>
        <_>
          16 13 3 1 2.</_></rects>
      <tilted>0</tilted></_>
    <_>
      <rects>
        <_>
          14 7 4 6 -1.</_>
        <_>
          16 7 2 6 2.</_></rects>
      <tilted>0</tilted></_>
    <_>
      <rects>
        <_>
          14 8 4 7 -1.</_>
        <_>
          16 8 2 7 2.</_></rects>
      <tilted>0</tilted></_>
    <_>
      <rects>
        <_>
          16 9 4 2 -1.</_>
        <_>
          18 9 2 2 2.</_></rects>
      <tilted>0</tilted></_></features></cascade>
</opencv_storage>
