<?xml version="1.0"?>
<opencv_storage>
<cascade>
  <stageType>BOOST</stageType>
  <featureType>HAAR</featureType>
  <height>20</height>
  <width>20</width>
  <stageParams>
    <boostType>GAB</boostType>
    <minHitRate>9.9500000476837158e-01</minHitRate>
    <maxFalseAlarm>3.0000001192092896e-01</maxFalseAlarm>
    <weightTrimRate>9.4999999999999996e-01</weightTrimRate>
    <maxDepth>1</maxDepth>
    <maxWeakCount>100</maxWeakCount></stageParams>
  <featureParams>
    <maxCatCount>0</maxCatCount>
    <featSize>1</featSize>
    <mode>BASIC</mode></featureParams>
  <stageNum>12</stageNum>
  <stages>
    <!-- stage 0 -->
    <_>
      <maxWeakCount>3</maxWeakCount>
      <stageThreshold>-9.3613845109939575e-01</stageThreshold>
      <weakClassifiers>
        <_>
          <internalNodes>
            0 -1 34 -2.7749810367822647e-02</internalNodes>
          <leafValues>
            8.0354428291320801e-01 -9.3919998407363892e-01</leafValues></_>
        <_>
          <internalNodes>
            0 -1 5 2.9572094790637493e-03</internalNodes>
          <leafValues>
            -8.6652261018753052e-01 6.1511749029159546e-01</leafValues></_>
        <_>
          <internalNodes>
            0 -1 40 1.9864268600940704e-02</internalNodes>
          <leafValues>
            -8.7316012382507324e-01 5.0251716375350952e-01</leafValues></_></weakClassifiers></_>
    <!-- stage 1 -->
    <_>
      <maxWeakCount>5</maxWeakCount>
      <stageThreshold>-5.5203890800476074e-01</stageThreshold>
      <weakClassifiers>
        <_>
          <internalNodes>
            0 -1 10 5.7377824559807777e-03</internalNodes>
          <leafValues>
            -9.4285714626312256e-01 6.9289100170135498e-01</leafValues></_>
        <_>
          <internalNodes>
            0 -1 45 2.5953534059226513e-03</internalNodes>
          <leafValues>
            4.3819355964660645e-01 -9.3890219926834106e-01</leafValues></_>
        <_>
          <internalNodes>
            0 -1 72 1.0289748199284077e-02</internalNodes>
          <leafValues>
            -9.0934580564498901e-01 4.0196159482002258e-01</leafValues></_>
        <_>
          <internalNodes>
            0 -1 75 -2.9819930205121636e-04</internalNodes>
          <leafValues>
            3.5900124907493591e-01 -8.2321107387542725e-01</leafValues></_>
        <_>
          <internalNodes>
            0 -1 4 1.0874858126044273e-03</internalNodes>
          <leafValues>
            -8.7813782691955566e-01 3.7387412786483765e-01</leafValues></_></weakClassifiers></_>
    <!-- stage 2 -->
    <_>
      <maxWeakCount>5</maxWeakCount>
      <stageThreshold>-1.7919686436653137e-01</stageThreshold>
      <weakClassifiers>
        <_>
          <internalNodes>
            0 -1 18 -7.8859245404601097e-03</internalNodes>
          <leafValues>
            6.8595826625823975e-01 -9.0650409460067749e-01</leafValues></_>
        <_>
          <internalNodes>
            0 -1 74 -7.6295407488942146e-03</internalNodes>
          <leafValues>
            5.2783972024917603e-01 -7.2150921821594238e-01</leafValues></_>
        <_>
          <internalNodes>
            0 -1 32 3.0903408303856850e-02</internalNodes>
          <leafValues>
            3.9358913898468018e-01 -9.2955112457275391e-01</leafValues></_>
        <_>
          <internalNodes>
            0 -1 0 1.1816761642694473e-01</internalNodes>
          <leafValues>
            -5.2897799015045166e-01 5.8818793296813965e-01</leafValues></_>
        <_>
          <internalNodes>
            0 -1 37 6.9911167956888676e-03</internalNodes>
          <leafValues>
            -9.5136016607284546e-01 3.3485633134841919e-01</leafValues></_></weakClassifiers></_>
    <!-- stage 3 -->
    <_>
      <maxWeakCount>7</maxWeakCount>
      <stageThreshold>-4.0587174892425537e-01</stageThreshold>
      <weakClassifiers>
        <_>
          <internalNodes>
            0 -1 8 -1.9186884164810181e-02</internalNodes>
          <leafValues>
            -9.1237115859985352e-01 6.1211574077606201e-01</leafValues></_>
        <_>
          <internalNodes>
            0 -1 46 -6.6439951770007610e-03</internalNodes>
          <leafValues>
            -8.8115108013153076e-01 3.7687483429908752e-01</leafValues></_>
        <_>
          <internalNodes>
            0 -1 14 2.2833565250039101e-02</internalNodes>
          <leafValues>
            -8.8301306962966919e-01 3.1793856620788574e-01</leafValues></_>
        <_>
          <internalNodes>
            0 -1 21 6.8422272801399231e-02</internalNodes>
          <leafValues>
            -3.9546778798103333e-01 8.1711548566818237e-01</leafValues></_>
        <_>
          <internalNodes>
            0 -1 68 3.6342693492770195e-03</internalNodes>
          <leafValues>
            -9.6451860666275024e-01 2.9239234328269958e-01</leafValues></_>
        <_>
          <internalNodes>
            0 -1 59 1.9235154613852501e-03</internalNodes>
          <leafValues>
            -6.0127395391464233e-01 4.1105180978775024e-01</leafValues></_>
        <_>
          <internalNodes>
            0 -1 53 4.4647173490375280e-04</internalNodes>
          <leafValues>
            2.4957443773746490e-01 -9.6674251556396484e-01</leafValues></_></weakClassifiers></_>
    <!-- stage 4 -->
    <_>
      <maxWeakCount>6</maxWeakCount>
      <stageThreshold>-1.3840906322002411e-01</stageThreshold>
      <weakClassifiers>
        <_>
          <internalNodes>
            0 -1 56 -5.8169336989521980e-04</internalNodes>
          <leafValues>
            -8.9397591352462769e-01 6.2745994329452515e-01</leafValues></_>
        <_>
          <internalNodes>
            0 -1 67 1.6504800878465176e-03</internalNodes>
          <leafValues>
            -8.3283948898315430e-01 3.7145256996154785e-01</leafValues></_>
        <_>
          <internalNodes>
            0 -1 43 -9.0299677103757858e-03</internalNodes>
          <leafValues>
            7.6237434148788452e-01 -4.0124529600143433e-01</leafValues></_>
        <_>
          <internalNodes>
            0 -1 65 -6.0681614559143782e-04</internalNodes>
          <leafValues>
            -9.1991955041885376e-01 3.5018864274024963e-01</leafValues></_>
        <_>
          <internalNodes>
            0 -1 11 2.0709708333015442e-03</internalNodes>
          <leafValues>
            -8.8797903060913086e-01 2.5124001502990723e-01</leafValues></_>
        <_>
          <internalNodes>
            0 -1 13 3.9170593023300171e-02</internalNodes>
          <leafValues>
            1.8393088877201080e-01 -9.6609294414520264e-01</leafValues></_></weakClassifiers></_>
    <!-- stage 5 -->
    <_>
      <maxWeakCount>6</maxWeakCount>
      <stageThreshold>-2.2756624221801758e-01</stageThreshold>
      <weakClassifiers>
        <_>
          <internalNodes>
            0 -1 30 -7.7964998781681061e-03</internalNodes>
          <leafValues>
            -8.5501068830490112e-01 6.5743780136108398e-01</leafValues></_>
        <_>
          <internalNodes>
            0 -1 66 6.0825906984973699e-05</internalNodes>
          <leafValues>
            -8.3352065086364746e-01 3.4428402781486511e-01</leafValues></_>
        <_>
          <internalNodes>
            0 -1 66 9.0442888904362917e-04</internalNodes>
          <leafValues>
            3.0549019575119019e-01 -9.1736680269241333e-01</leafValues></_>
        <_>
          <internalNodes>
            0 -1 57 3.7397406995296478e-03</internalNodes>
          <leafValues>
            -7.3577415943145752e-01 2.9551210999488831e-01</leafValues></_>
        <_>
          <internalNodes>
            0 -1 12 1.6104320529848337e-03</internalNodes>
          <leafValues>
            -9.5648807287216187e-01 2.3409475386142731e-01</leafValues></_>
        <_>
          <internalNodes>
            0 -1 33 9.1849146410822868e-03</internalNodes>
          <leafValues>
            1.8975809216499329e-01 -9.7984206676483154e-01</leafValues></_></weakClassifiers></_>
    <!-- stage 6 -->
    <_>
      <maxWeakCount>8</maxWeakCount>
      <stageThreshold>-1.0158370733261108e+00</stageThreshold>
      <weakClassifiers>
        <_>
          <internalNodes>
            0 -1 62 -1.5413483197335154e-05</internalNodes>
          <leafValues>
            -6.5217393636703491e-01 6.4944469928741455e-01</leafValues></_>
        <_>
          <internalNodes>
            0 -1 39 3.6335159093141556e-03</internalNodes>
          <leafValues>
            -7.4679183959960938e-01 3.9099106192588806e-01</leafValues></_>
        <_>
          <internalNodes>
            0 -1 1 1.7691922839730978e-03</internalNodes>
          <leafValues>
            -5.9898412227630615e-01 4.3288642168045044e-01</leafValues></_>
        <_>
          <internalNodes>
            0 -1 28 1.0568672791123390e-02</internalNodes>
          <leafValues>
            2.4709877371788025e-01 -8.7983864545822144e-01</leafValues></_>
        <_>
          <internalNodes>
            0 -1 49 -5.2341809496283531e-03</internalNodes>
          <leafValues>
            6.4929324388504028e-01 -3.9442905783653259e-01</leafValues></_>
        <_>
          <internalNodes>
            0 -1 36 -5.1619191654026508e-03</internalNodes>
          <leafValues>
            2.6655158400535583e-01 -9.1127532720565796e-01</leafValues></_>
        <_>
          <internalNodes>
            0 -1 16 -3.6857202649116516e-02</internalNodes>
          <leafValues>
            -8.6889606714248657e-01 2.7041533589363098e-01</leafValues></_>
        <_>
          <internalNodes>
            0 -1 58 1.8328609876334667e-03</internalNodes>
          <leafValues>
            -7.0914250612258911e-01 2.6636350154876709e-01</leafValues></_></weakClassifiers></_>
    <!-- stage 7 -->
    <_>
      <maxWeakCount>9</maxWeakCount>
      <stageThreshold>-9.6341568231582642e-01</stageThreshold>
      <weakClassifiers>
        <_>
          <internalNodes>
            0 -1 71 -1.9365930711501278e-05</internalNodes>
          <leafValues>
            -6.8149882555007935e-01 5.9410953521728516e-01</leafValues></_>
        <_>
          <internalNodes>
            0 -1 22 3.1460821628570557e-03</internalNodes>
          <leafValues>
            -5.7977324724197388e-01 4.2865201830863953e-01</leafValues></_>
        <_>
          <internalNodes>
            0 -1 48 -1.1621689423918724e-02</internalNodes>
          <leafValues>
            7.8563475608825684e-01 -2.7876806259155273e-01</leafValues></_>
        <_>
          <internalNodes>
            0 -1 76 -6.1696888878941536e-03</internalNodes>
          <leafValues>
            3.5093033313751221e-01 -6.0559004545211792e-01</leafValues></_>
        <_>
          <internalNodes>
            0 -1 15 2.4990988895297050e-03</internalNodes>
          <leafValues>
            -9.4931364059448242e-01 2.0260588824748993e-01</leafValues></_>
        <_>
          <internalNodes>
            0 -1 26 1.7412032932043076e-02</internalNodes>
          <leafValues>
            2.0742177963256836e-01 -9.4139629602432251e-01</leafValues></_>
        <_>
          <internalNodes>
            0 -1 6 5.9047956019639969e-03</internalNodes>
          <leafValues>
            1.8924409151077271e-01 -7.9567843675613403e-01</leafValues></_>
        <_>
          <internalNodes>
            0 -1 42 -1.8024886958301067e-03</internalNodes>
          <leafValues>
            1.2027490139007568e-01 -9.5414280891418457e-01</leafValues></_>
        <_>
          <internalNodes>
            0 -1 38 -2.6524218264967203e-04</internalNodes>
          <leafValues>
            1.7198204994201660e-01 -9.2927414178848267e-01</leafValues></_></weakClassifiers></_>
    <!-- stage 8 -->
    <_>
      <maxWeakCount>7</maxWeakCount>
      <stageThreshold>-7.8573030233383179e-01</stageThreshold>
      <weakClassifiers>
        <_>
          <internalNodes>
            0 -1 44 7.6702833175659180e-02</internalNodes>
          <leafValues>
            5.9052300453186035e-01 -8.8429754972457886e-01</leafValues></_>
        <_>
          <internalNodes>
            0 -1 27 3.3603617921471596e-03</internalNodes>
          <leafValues>
            3.3735042810440063e-01 -8.8010704517364502e-01</leafValues></_>
        <_>
          <internalNodes>
            0 -1 54 1.2684389366768301e-04</internalNodes>
          <leafValues>
            -7.7063602209091187e-01 2.8414404392242432e-01</leafValues></_>
        <_>
          <internalNodes>
            0 -1 51 6.0208453796803951e-03</internalNodes>
          <leafValues>
            -7.9016029834747314e-01 3.3260437846183777e-01</leafValues></_>
        <_>
          <internalNodes>
            0 -1 24 4.8868614248931408e-04</internalNodes>
          <leafValues>
            -8.2261037826538086e-01 2.1644359827041626e-01</leafValues></_>
        <_>
          <internalNodes>
            0 -1 75 -5.0133420154452324e-04</internalNodes>
          <leafValues>
            2.9813513159751892e-01 -6.7293530702590942e-01</leafValues></_>
        <_>
          <internalNodes>
            0 -1 41 -2.8297243639826775e-02</internalNodes>
          <leafValues>
            -8.5917192697525024e-01 2.1997356414794922e-01</leafValues></_></weakClassifiers></_>
    <!-- stage 9 -->
    <_>
      <maxWeakCount>9</maxWeakCount>
      <stageThreshold>-6.7282330989837646e-01</stageThreshold>
      <weakClassifiers>
        <_>
          <internalNodes>
            0 -1 17 5.6578647345304489e-03</internalNodes>
          <leafValues>
            -6.8918919563293457e-01 6.0575139522552490e-01</leafValues></_>
        <_>
          <internalNodes>
            0 -1 55 2.7082159067504108e-04</internalNodes>
          <leafValues>
            2.9159829020500183e-01 -9.6587878465652466e-01</leafValues></_>
        <_>
          <internalNodes>
            0 -1 31 4.1900455951690674e-02</internalNodes>
          <leafValues>
            -3.4763967990875244e-01 7.1896386146545410e-01</leafValues></_>
        <_>
          <internalNodes>
            0 -1 70 2.3454081383533776e-04</internalNodes>
          <leafValues>
            -6.6060918569564819e-01 3.5144290328025818e-01</leafValues></_>
        <_>
          <internalNodes>
            0 -1 64 3.9918182301335037e-04</internalNodes>
          <leafValues>
            -8.5414385795593262e-01 2.1823178231716156e-01</leafValues></_>
        <_>
          <internalNodes>
            0 -1 63 5.5980877950787544e-03</internalNodes>
          <leafValues>
            3.0614191293716431e-01 -7.3336964845657349e-01</leafValues></_>
        <_>
          <internalNodes>
            0 -1 47 1.3859685510396957e-02</internalNodes>
          <leafValues>
            2.2129574418067932e-01 -8.0771082639694214e-01</leafValues></_>
        <_>
          <internalNodes>
            0 -1 9 5.8092391118407249e-03</internalNodes>
          <leafValues>
            -9.3394517898559570e-01 1.6578990221023560e-01</leafValues></_>
        <_>
          <internalNodes>
            0 -1 2 -9.6528269350528717e-03</internalNodes>
          <leafValues>
            5.4566740989685059e-01 -3.8405337929725647e-01</leafValues></_></weakClassifiers></_>
    <!-- stage 10 -->
    <_>
      <maxWeakCount>9</maxWeakCount>
      <stageThreshold>-8.1350332498550415e-01</stageThreshold>
      <weakClassifiers>
        <_>
          <internalNodes>
            0 -1 25 -1.2195248156785965e-02</internalNodes>
          <leafValues>
            -8.5269123315811157e-01 5.7899421453475952e-01</leafValues></_>
        <_>
          <internalNodes>
            0 -1 60 -3.1758607365190983e-03</internalNodes>
          <leafValues>
            5.1526433229446411e-01 -4.4585618376731873e-01</leafValues></_>
        <_>
          <internalNodes>
            0 -1 50 -8.8991383090615273e-03</internalNodes>
          <leafValues>
            -9.6000820398330688e-01 3.0400893092155457e-01</leafValues></_>
        <_>
          <internalNodes>
            0 -1 77 -6.6403476521372795e-03</internalNodes>
          <leafValues>
            7.3899334669113159e-01 -3.9596572518348694e-01</leafValues></_>
        <_>
          <internalNodes>
            0 -1 3 7.7862970530986786e-02</internalNodes>
          <leafValues>
            2.7254313230514526e-01 -8.9417469501495361e-01</leafValues></_>
        <_>
          <internalNodes>
            0 -1 20 4.3030101805925369e-03</internalNodes>
          <leafValues>
            -7.9050755500793457e-01 2.4181227385997772e-01</leafValues></_>
        <_>
          <internalNodes>
            0 -1 23 -3.0457982793450356e-02</internalNodes>
          <leafValues>
            -7.9877787828445435e-01 2.2508993744850159e-01</leafValues></_>
        <_>
          <internalNodes>
            0 -1 73 1.5712086111307144e-02</internalNodes>
          <leafValues>
            -7.9115134477615356e-01 2.4467475712299347e-01</leafValues></_>
        <_>
          <internalNodes>
            0 -1 69 -2.4129680241458118e-04</internalNodes>
          <leafValues>
            -8.8155406713485718e-01 2.2088925540447235e-01</leafValues></_></weakClassifiers></_>
    <!-- stage 11 -->
    <_>
      <maxWeakCount>6</maxWeakCount>
      <stageThreshold>-7.1243399381637573e-01</stageThreshold>
      <weakClassifiers>
        <_>
          <internalNodes>
            0 -1 52 7.7730685006827116e-04</internalNodes>
          <leafValues>
            -4.7957992553710938e-01 8.0952382087707520e-01</leafValues></_>
        <_>
          <internalNodes>
            0 -1 19 9.5690283924341202e-03</internalNodes>
          <leafValues>
            7.2020733356475830e-01 -5.1850789785385132e-01</leafValues></_>
        <_>
          <internalNodes>
            0 -1 35 -2.1950555965304375e-03</internalNodes>
          <leafValues>
            3.9685180783271790e-01 -9.2797136306762695e-01</leafValues></_>
        <_>
          <internalNodes>
            0 -1 29 -1.9440598785877228e-02</internalNodes>
          <leafValues>
            -7.5971692800521851e-01 3.7874993681907654e-01</leafValues></_>
        <_>
          <internalNodes>
            0 -1 61 -4.0810140781104565e-03</internalNodes>
          <leafValues>
            -8.4139961004257202e-01 3.5064163804054260e-01</leafValues></_>
        <_>
          <internalNodes>
            0 -1 7 3.1366415321826935e-02</internalNodes>
          <leafValues>
            2.9787725210189819e-01 -9.5821553468704224e-01</leafValues></_></weakClassifiers></_></stages>
  <features>
    <_>
      <rects>
        <_>
          0 4 8 14 -1.</_>
        <_>
          4 4 4 14 2.</_></rects>
      <tilted>0</tilted></_>
    <_>
      <rects>
        <_>
          2 9 2 3 -1.</_>
        <_>
          3 9 1 3 2.</_></rects>
      <tilted>0</tilted></_>
    <_>
      <rects>
        <_>
          3 0 13 2 -1.</_>
        <_>
          3 1 13 1 2.</_></rects>
      <tilted>0</tilted></_>
    <_>
      <rects>
        <_>
          3 5 10 12 -1.</_>
        <_>
          3 11 10 6 2.</_></rects>
      <tilted>0</tilted></_>
    <_>
      <rects>
        <_>
          3 7 4 1 -1.</_>
        <_>
          5 7 2 1 2.</_></rects>
      <tilted>0</tilted></_>
    <_>
      <rects>
        <_>
          3 7 4 2 -1.</_>
        <_>
          5 7 2 2 2.</_></rects>
      <tilted>0</tilted></_>
    <_>
      <rects>
        <_>
          3 8 12 4 -1.</_>
        <_>
          3 8 6 2 2.</_>
        <_>
          9 10 6 2 2.</_></rects>
      <tilted>0</tilted></_>
    <_>
      <rects>
        <_>
          3 9 14 6 -1.</_>
        <_>
          10 9 7 6 2.</_></rects>
      <tilted>0</tilted></_>
    <_>
      <rects>
        <_>
          4 4 13 9 -1.</_>
        <_>
          4 7 13 3 3.</_></rects>
      <tilted>0</tilted></_>
    <_>
      <rects>
        <_>
          4 5 4 8 -1.</_>
        <_>
          4 9 4 4 2.</_></rects>
      <tilted>0</tilted></_>
    <_>
      <rects>
        <_>
          4 5 13 6 -1.</_>
        <_>
          4 8 13 3 2.</_></rects>
      <tilted>0</tilted></_>
    <_>
      <rects>
        <_>
          4 6 2 8 -1.</_>
        <_>
          5 6 1 8 2.</_></rects>
      <tilted>0</tilted></_>
    <_>
      <rects>
        <_>
          4 6 5 4 -1.</_>
        <_>
          4 8 5 2 2.</_></rects>
      <tilted>0</tilted></_>
    <_>
      <rects>
        <_>
          4 6 14 10 -1.</_>
        <_>
          11 6 7 10 2.</_></rects>
      <tilted>0</tilted></_>
    <_>
      <rects>
        <_>
          4 6 13 12 -1.</_>
        <_>
          4 10 13 4 3.</_></rects>
      <tilted>0</tilted></_>
    <_>
      <rects>
        <_>
          4 7 11 6 -1.</_>
        <_>
          4 10 11 3 2.</_></rects>
      <tilted>0</tilted></_>
    <_>
      <rects>
        <_>
          4 8 12 2 -1.</_>
        <_>
          8 8 4 2 3.</_></rects>
      <tilted>0</tilted></_>
    <_>
      <rects>
        <_>
          4 10 6 3 -1.</_>
        <_>
          6 10 2 3 3.</_></rects>
      <tilted>0</tilted></_>
    <_>
      <rects>
        <_>
          4 10 8 3 -1.</_>
        <_>
          8 10 4 3 2.</_></rects>
      <tilted>0</tilted></_>
    <_>
      <rects>
        <_>
          4 10 16 7 -1.</_>
        <_>
          12 10 8 7 2.</_></rects>
      <tilted>0</tilted></_>
    <_>
      <rects>
        <_>
          4 10 12 4 -1.</_>
        <_>
          4 12 12 2 2.</_></rects>
      <tilted>0</tilted></_>
    <_>
      <rects>
        <_>
          5 0 12 6 -1.</_>
        <_>
          5 3 12 3 2.</_></rects>
      <tilted>0</tilted></_>
    <_>
      <rects>
        <_>
          5 2 3 4 -1.</_>
        <_>
          5 4 3 2 2.</_></rects>
      <tilted>0</tilted></_>
    <_>
      <rects>
        <_>
          5 3 11 12 -1.</_>
        <_>
          5 7 11 4 3.</_></rects>
      <tilted>0</tilted></_>
    <_>
      <rects>
        <_>
          5 4 1 4 -1.</_>
        <_>
          5 6 1 2 2.</_></rects>
      <tilted>0</tilted></_>
    <_>
      <rects>
        <_>
          5 4 12 8 -1.</_>
        <_>
          5 4 6 4 2.</_>
        <_>
          11 8 6 4 2.</_></rects>
      <tilted>0</tilted></_>
    <_>
      <rects>
        <_>
          5 5 2 10 -1.</_>
        <_>
          5 10 2 5 2.</_></rects>
      <tilted>0</tilted></_>
    <_>
      <rects>
        <_>
          5 6 9 9 -1.</_>
        <_>
          5 9 9 3 3.</_></rects>
      <tilted>0</tilted></_>
    <_>
      <rects>
        <_>
          5 7 11 4 -1.</_>
        <_>
          5 9 11 2 2.</_></rects>
      <tilted>0</tilted></_>
    <_>
      <rects>
        <_>
          5 8 9 2 -1.</_>
        <_>
          8 8 3 2 3.</_></rects>
      <tilted>0</tilted></_>
    <_>
      <rects>
        <_>
          5 10 12 3 -1.</_>
        <_>
          11 10 6 3 2.</_></rects>
      <tilted>0</tilted></_>
    <_>
      <rects>
        <_>
          6 0 9 4 -1.</_>
        <_>
          6 2 9 2 2.</_></rects>
      <tilted>0</tilted></_>
    <_>
      <rects>
        <_>
          6 4 9 8 -1.</_>
        <_>
          6 8 9 4 2.</_></rects>
      <tilted>0</tilted></_>
    <_>
      <rects>
        <_>
          6 5 7 4 -1.</_>
        <_>
          6 7 7 2 2.</_></rects>
      <tilted>0</tilted></_>
    <_>
      <rects>
        <_>
          6 6 9 7 -1.</_>
        <_>
          9 6 3 7 3.</_></rects>
      <tilted>0</tilted></_>
    <_>
      <rects>
        <_>
          6 7 9 1 -1.</_>
        <_>
          9 7 3 1 3.</_></rects>
      <tilted>0</tilted></_>
    <_>
      <rects>
        <_>
          6 7 9 2 -1.</_>
        <_>
          9 7 3 2 3.</_></rects>
      <tilted>0</tilted></_>
    <_>
      <rects>
        <_>
          6 7 8 8 -1.</_>
        <_>
          6 11 8 4 2.</_></rects>
      <tilted>0</tilted></_>
    <_>
      <rects>
        <_>
          6 8 6 1 -1.</_>
        <_>
          8 8 2 1 3.</_></rects>
      <tilted>0</tilted></_>
    <_>
      <rects>
        <_>
          6 8 2 9 -1.</_>
        <_>
          6 11 2 3 3.</_></rects>
      <tilted>0</tilted></_>
    <_>
      <rects>
        <_>
          6 9 10 9 -1.</_>
        <_>
          6 12 10 3 3.</_></rects>
      <tilted>0</tilted></_>
    <_>
      <rects>
        <_>
          7 7 9 3 -1.</_>
        <_>
          10 7 3 3 3.</_></rects>
      <tilted>0</tilted></_>
    <_>
      <rects>
        <_>
          7 8 9 1 -1.</_>
        <_>
          10 8 3 1 3.</_></rects>
      <tilted>0</tilted></_>
    <_>
      <rects>
        <_>
          7 18 7 2 -1.</_>
        <_>
          7 19 7 1 2.</_></rects>
      <tilted>0</tilted></_>
    <_>
      <rects>
        <_>
          8 4 8 14 -1.</_>
        <_>
          8 11 8 7 2.</_></rects>
      <tilted>0</tilted></_>
    <_>
      <rects>
        <_>
          8 6 8 9 -1.</_>
        <_>
          8 9 8 3 3.</_></rects>
      <tilted>0</tilted></_>
    <_>
      <rects>
        <_>
          8 8 6 2 -1.</_>
        <_>
          10 8 2 2 3.</_></rects>
      <tilted>0</tilted></_>
    <_>
      <rects>
        <_>
          8 13 10 2 -1.</_>
        <_>
          13 13 5 2 2.</_></rects>
      <tilted>0</tilted></_>
    <_>
      <rects>
        <_>
          8 18 6 2 -1.</_>
        <_>
          8 19 6 1 2.</_></rects>
      <tilted>0</tilted></_>
    <_>
      <rects>
        <_>
          9 0 3 3 -1.</_>
        <_>
          9 1 3 1 3.</_></rects>
      <tilted>0</tilted></_>
    <_>
      <rects>
        <_>
          9 4 3 14 -1.</_>
        <_>
          9 11 3 7 2.</_></rects>
      <tilted>0</tilted></_>
    <_>
      <rects>
        <_>
          9 4 8 10 -1.</_>
        <_>
          9 4 4 5 2.</_>
        <_>
          13 9 4 5 2.</_></rects>
      <tilted>0</tilted></_>
    <_>
      <rects>
        <_>
          9 6 2 6 -1.</_>
        <_>
          9 8 2 2 3.</_></rects>
      <tilted>0</tilted></_>
    <_>
      <rects>
        <_>
          9 7 2 2 -1.</_>
        <_>
          10 7 1 2 2.</_></rects>
      <tilted>0</tilted></_>
    <_>
      <rects>
        <_>
          9 7 3 2 -1.</_>
        <_>
          9 8 3 1 2.</_></rects>
      <tilted>0</tilted></_>
    <_>
      <rects>
        <_>
          9 8 2 1 -1.</_>
        <_>
          10 8 1 1 2.</_></rects>
      <tilted>0</tilted></_>
    <_>
      <rects>
        <_>
          9 8 3 1 -1.</_>
        <_>
          10 8 1 1 3.</_></rects>
      <tilted>0</tilted></_>
    <_>
      <rects>
        <_>
          9 11 2 6 -1.</_>
        <_>
          9 13 2 2 3.</_></rects>
      <tilted>0</tilted></_>
    <_>
      <rects>
        <_>
          9 12 4 2 -1.</_>
        <_>
          9 13 4 1 2.</_></rects>
      <tilted>0</tilted></_>
    <_>
      <rects>
        <_>
          9 13 3 3 -1.</_>
        <_>
          9 14 3 1 3.</_></rects>
      <tilted>0</tilted></_>
    <_>
      <rects>
        <_>
          9 15 4 3 -1.</_>
        <_>
          9 16 4 1 3.</_></rects>
      <tilted>0</tilted></_>
    <_>
      <rects>
        <_>
          10 5 7 6 -1.</_>
        <_>
          10 7 7 2 3.</_></rects>
      <tilted>0</tilted></_>
    <_>
      <rects>
        <_>
          10 6 1 2 -1.</_>
        <_>
          10 7 1 1 2.</_></rects>
      <tilted>0</tilted></_>
    <_>
      <rects>
        <_>
          10 6 6 4 -1.</_>
        <_>
          10 8 6 2 2.</_></rects>
      <tilted>0</tilted></_>
    <_>
      <rects>
        <_>
          10 6 7 2 -1.</_>
        <_>
          10 7 7 1 2.</_></rects>
      <tilted>0</tilted></_>
    <_>
      <rects>
        <_>
          10 7 2 3 -1.</_>
        <_>
          11 7 1 3 2.</_></rects>
      <tilted>0</tilted></_>
    <_>
      <rects>
        <_>
          10 7 2 2 -1.</_>
        <_>
          10 8 2 1 2.</_></rects>
      <tilted>0</tilted></_>
    <_>
      <rects>
        <_>
          10 7 4 6 -1.</_>
        <_>
          10 7 2 3 2.</_>
        <_>
          12 10 2 3 2.</_></rects>
      <tilted>0</tilted></_>
    <_>
      <rects>
        <_>
          10 7 6 3 -1.</_>
        <_>
          13 7 3 3 2.</_></rects>
      <tilted>0</tilted></_>
    <_>
      <rects>
        <_>
          10 8 2 1 -1.</_>
        <_>
          11 8 1 1 2.</_></rects>
      <tilted>0</tilted></_>
    <_>
      <rects>
        <_>
          11 7 1 4 -1.</_>
        <_>
          11 9 1 2 2.</_></rects>
      <tilted>0</tilted></_>
    <_>
      <rects>
        <_>
          11 8 1 2 -1.</_>
        <_>
          11 9 1 1 2.</_></rects>
      <tilted>0</tilted></_>
    <_>
      <rects>
        <_>
          12 6 4 12 -1.</_>
        <_>
          12 10 4 4 3.</_></rects>
      <tilted>0</tilted></_>
    <_>
      <rects>
        <_>
          12 7 6 7 -1.</_>
        <_>
          14 7 2 7 3.</_></rects>
      <tilted>0</tilted></_>
    <_>
      <rects>
        <_>
          15 6 4 4 -1.</_>
        <_>
          17 6 2 4 2.</_></rects>
      <tilted>0</tilted></_>
    <_>
      <rects>
        <_>
          15 7 2 1 -1.</_>
        <_>
          16 7 1 1 2.</_></rects>
      <tilted>0</tilted></_>
    <_>
      <rects>
        <_>
          15 12 4 4 -1.</_>
        <_>
          17 12 2 4 2.</_></rects>
      <tilted>0</tilted></_>
    <_>
      <rects>
        <_>
          18 9 2 4 -1.</_>
        <_>
          19 9 1 4 2.</_></rects>
      <tilted>0</tilted></_></features></cascade>
</opencv_storage>
